<?xml version="1.0"?>
<opencv_storage><cascade><stageType>BOOST</stageType><featureType>HAAR</featureType><height>30</height><width>30</width><stageParams><boostType>GAB</boostType><minHitRate>9.9900001287460327e-01</minHitRate><maxFalseAlarm>5.0000000000000000e-01</maxFalseAlarm><weightTrimRate>9.4999999999999996e-01</weightTrimRate><maxDepth>1</maxDepth><maxWeakCount>100</maxWeakCount></stageParams><featureParams><maxCatCount>0</maxCatCount><featSize>1</featSize><mode>ALL</mode></featureParams><stageNum>19</stageNum><stages><_><maxWeakCount>9</maxWeakCount><stageThreshold>-2.8366065025329590e+00</stageThreshold><weakClassifiers><_><internalNodes> 0 -1 257 6.6856577992439270e-02</internalNodes><leafValues> -8.8097661733627319e-01 7.0793038606643677e-01</leafValues></_><_><internalNodes> 0 -1 427 -6.8588584661483765e-02</internalNodes><leafValues> 5.7448434829711914e-01 -6.6738939285278320e-01</leafValues></_><_><internalNodes> 0 -1 49 3.6588706076145172e-02</internalNodes><leafValues> -7.7265185117721558e-01 4.0215024352073669e-01</leafValues></_><_><internalNodes> 0 -1 353 -5.8865370228886604e-03</internalNodes><leafValues> 5.9189766645431519e-01 -5.6436777114868164e-01</leafValues></_><_><internalNodes> 0 -1 155 -1.6088461503386497e-02</internalNodes><leafValues> 4.9024009704589844e-01 -5.2912509441375732e-01</leafValues></_><_><internalNodes> 0 -1 21 -2.2936356253921986e-03</internalNodes><leafValues> 5.2856355905532837e-01 -3.5711896419525146e-01</leafValues></_><_><internalNodes> 0 -1 317 -5.5977324955165386e-03</internalNodes><leafValues> 5.5630993843078613e-01 -3.2018801569938660e-01</leafValues></_><_><internalNodes> 0 -1 103 1.3621747493743896e-03</internalNodes><leafValues> 2.3289248347282410e-01 -9.4645237922668457e-01</leafValues></_><_><internalNodes> 0 -1 148 -1.1927930172532797e-03</internalNodes><leafValues> -8.7502950429916382e-01 1.3663609325885773e-01</leafValues></_></weakClassifiers></_><_><maxWeakCount>8</maxWeakCount><stageThreshold>-2.4038422107696533e+00</stageThreshold><weakClassifiers><_><internalNodes> 0 -1 259 6.9783873856067657e-02</internalNodes><leafValues> -8.6804121732711792e-01 6.4528304338455200e-01</leafValues></_><_><internalNodes> 0 -1 112 -5.8731712400913239e-02</internalNodes><leafValues> 5.9006160497665405e-01 -7.3907524347305298e-01</leafValues></_><_><internalNodes> 0 -1 160 -1.4908123761415482e-02</internalNodes><leafValues> 5.6270945072174072e-01 -6.5273487567901611e-01</leafValues></_><_><internalNodes> 0 -1 228 -1.4746849238872528e-01</internalNodes><leafValues> 3.5156729817390442e-01 -6.8236070871353149e-01</leafValues></_><_><internalNodes> 0 -1 16 -2.4246112443506718e-03</internalNodes><leafValues> 5.2058911323547363e-01 -5.4275661706924438e-01</leafValues></_><_><internalNodes> 0 -1 366 -2.5382810272276402e-03</internalNodes><leafValues> 5.3611999750137329e-01 -4.9676361680030823e-01</leafValues></_><_><internalNodes> 0 -1 187 6.5604003611952066e-04</internalNodes><leafValues> -7.0966142416000366e-01 3.1668928265571594e-01</leafValues></_><_><internalNodes> 0 -1 254 -5.3272140212357044e-04</internalNodes><leafValues> -9.5238488912582397e-01 1.9785490632057190e-01</leafValues></_></weakClassifiers></_><_><maxWeakCount>10</maxWeakCount><stageThreshold>-2.8772203922271729e+00</stageThreshold><weakClassifiers><_><internalNodes> 0 -1 75 -5.0307124853134155e-01</internalNodes><leafValues> 6.5697091817855835e-01 -8.2626062631607056e-01</leafValues></_><_><internalNodes> 0 -1 37 3.1830894947052002e-01</internalNodes><leafValues> -8.1759756803512573e-01 4.3042594194412231e-01</leafValues></_><_><internalNodes> 0 -1 117 -5.3804546594619751e-02</internalNodes><leafValues> 5.7380151748657227e-01 -4.7278428077697754e-01</leafValues></_><_><internalNodes> 0 -1 47 -5.6147668510675430e-03</internalNodes><leafValues> 5.0652801990509033e-01 -4.1308104991912842e-01</leafValues></_><_><internalNodes> 0 -1 410 4.8233317211270332e-03</internalNodes><leafValues> -5.9876877069473267e-01 2.9076570272445679e-01</leafValues></_><_><internalNodes> 0 -1 159 -9.1923233121633530e-03</internalNodes><leafValues> 3.6753416061401367e-01 -4.8178029060363770e-01</leafValues></_><_><internalNodes> 0 -1 102 -7.7798211714252830e-04</internalNodes><leafValues> -8.8721621036529541e-01 1.5717001259326935e-01</leafValues></_><_><internalNodes> 0 -1 273 1.5762191032990813e-03</internalNodes><leafValues> 1.4641399681568146e-01 -8.9294087886810303e-01</leafValues></_><_><internalNodes> 0 -1 33 -2.8724884614348412e-03</internalNodes><leafValues> 2.4973943829536438e-01 -5.8459621667861938e-01</leafValues></_><_><internalNodes> 0 -1 199 1.4525996521115303e-03</internalNodes><leafValues> 1.7972876131534576e-01 -8.6660528182983398e-01</leafValues></_></weakClassifiers></_><_><maxWeakCount>12</maxWeakCount><stageThreshold>-2.5757441520690918e+00</stageThreshold><weakClassifiers><_><internalNodes> 0 -1 14 3.1425037980079651e-01</internalNodes><leafValues> -8.9023685455322266e-01 4.2631992697715759e-01</leafValues></_><_><internalNodes> 0 -1 81 -4.1937845945358276e-01</internalNodes><leafValues> 6.2071990966796875e-01 -6.1733722686767578e-01</leafValues></_><_><internalNodes> 0 -1 326 1.9532770238583907e-05</internalNodes><leafValues> -5.5638122558593750e-01 3.1272137165069580e-01</leafValues></_><_><internalNodes> 0 -1 89 -3.3151842653751373e-02</internalNodes><leafValues> 6.9425612688064575e-01 -2.5195580720901489e-01</leafValues></_><_><internalNodes> 0 -1 396 1.3386795762926340e-03</internalNodes><leafValues> 2.1556071937084198e-01 -8.5945159196853638e-01</leafValues></_><_><internalNodes> 0 -1 397 -1.4327998505905271e-03</internalNodes><leafValues> -7.2075402736663818e-01 2.1056473255157471e-01</leafValues></_><_><internalNodes> 0 -1 349 -3.7312842905521393e-03</internalNodes><leafValues> 4.0228223800659180e-01 -4.1658875346183777e-01</leafValues></_><_><internalNodes> 0 -1 3 -3.5408469848334789e-03</internalNodes><leafValues> 2.8854587674140930e-01 -5.4837596416473389e-01</leafValues></_><_><internalNodes> 0 -1 359 1.9016952137462795e-05</internalNodes><leafValues> -4.9128857254981995e-01 3.2767787575721741e-01</leafValues></_><_><internalNodes> 0 -1 211 -5.9732468798756599e-03</internalNodes><leafValues> 4.2343178391456604e-01 -3.5760557651519775e-01</leafValues></_><_><internalNodes> 0 -1 239 1.8851463682949543e-03</internalNodes><leafValues> 1.7056123912334442e-01 -9.2943340539932251e-01</leafValues></_><_><internalNodes> 0 -1 240 -2.0165347959846258e-03</internalNodes><leafValues> -9.2147862911224365e-01 1.2041725963354111e-01</leafValues></_></weakClassifiers></_><_><maxWeakCount>15</maxWeakCount><stageThreshold>-2.4952063560485840e+00</stageThreshold><weakClassifiers><_><internalNodes> 0 -1 128 -5.0181555747985840e-01</internalNodes><leafValues> 3.8576778769493103e-01 -7.3084884881973267e-01</leafValues></_><_><internalNodes> 0 -1 392 -1.6461744904518127e-02</internalNodes><leafValues> 5.6479001045227051e-01 -4.5307233929634094e-01</leafValues></_><_><internalNodes> 0 -1 10 3.3634126186370850e-01</internalNodes><leafValues> -7.8358727693557739e-01 3.0873203277587891e-01</leafValues></_><_><internalNodes> 0 -1 22 -5.0590420141816139e-03</internalNodes><leafValues> 5.3068751096725464e-01 -4.6656036376953125e-01</leafValues></_><_><internalNodes> 0 -1 198 -5.0214878283441067e-03</internalNodes><leafValues> 3.2844653725624084e-01 -5.2481496334075928e-01</leafValues></_><_><internalNodes> 0 -1 28 4.0246691787615418e-04</internalNodes><leafValues> -7.2997951507568359e-01 2.1459437906742096e-01</leafValues></_><_><internalNodes> 0 -1 116 -3.2281737774610519e-02</internalNodes><leafValues> 5.6527304649353027e-01 -3.1825140118598938e-01</leafValues></_><_><internalNodes> 0 -1 420 7.2356499731540680e-04</internalNodes><leafValues> 1.9098602235317230e-01 -8.8792729377746582e-01</leafValues></_><_><internalNodes> 0 -1 385 -1.0661423439159989e-03</internalNodes><leafValues> 2.8326714038848877e-01 -4.7058296203613281e-01</leafValues></_><_><internalNodes> 0 -1 419 -1.2470950605347753e-03</internalNodes><leafValues> -8.3646011352539062e-01 1.6070324182510376e-01</leafValues></_><_><internalNodes> 0 -1 34 -2.9399851337075233e-03</internalNodes><leafValues> 2.6529771089553833e-01 -4.3770480155944824e-01</leafValues></_><_><internalNodes> 0 -1 205 -3.9966735057532787e-03</internalNodes><leafValues> 6.0663324594497681e-01 -2.1126402914524078e-01</leafValues></_><_><internalNodes> 0 -1 358 -2.0405430404935032e-05</internalNodes><leafValues> 2.6067131757736206e-01 -5.2031052112579346e-01</leafValues></_><_><internalNodes> 0 -1 151 3.3819983946159482e-04</internalNodes><leafValues> 1.4925780892372131e-01 -7.3578649759292603e-01</leafValues></_><_><internalNodes> 0 -1 166 -3.8750164094381034e-04</internalNodes><leafValues> -7.8662759065628052e-01 1.1874386668205261e-01</leafValues></_></weakClassifiers></_><_><maxWeakCount>17</maxWeakCount><stageThreshold>-2.4331297874450684e+00</stageThreshold><weakClassifiers><_><internalNodes> 0 -1 31 -1.3298231363296509e-01</internalNodes><leafValues> 3.1487342715263367e-01 -8.0529952049255371e-01</leafValues></_><_><internalNodes> 0 -1 161 -1.9453179091215134e-02</internalNodes><leafValues> 3.9902061223983765e-01 -5.2756249904632568e-01</leafValues></_><_><internalNodes> 0 -1 23 1.9173064827919006e-01</internalNodes><leafValues> -7.2664326429367065e-01 2.9115128517150879e-01</leafValues></_><_><internalNodes> 0 -1 366 -3.1829562503844500e-03</internalNodes><leafValues> 3.6430698633193970e-01 -4.4567146897315979e-01</leafValues></_><_><internalNodes> 0 -1 7 -4.4452935981098562e-05</internalNodes><leafValues> 2.5398874282836914e-01 -5.4608201980590820e-01</leafValues></_><_><internalNodes> 0 -1 222 1.6196274664252996e-03</internalNodes><leafValues> 1.5025301277637482e-01 -9.6314436197280884e-01</leafValues></_><_><internalNodes> 0 -1 221 -2.0724893547594547e-03</internalNodes><leafValues> -8.5845845937728882e-01 1.1785848438739777e-01</leafValues></_><_><internalNodes> 0 -1 69 -2.6593406219035387e-03</internalNodes><leafValues> 4.3181657791137695e-01 -3.3172267675399780e-01</leafValues></_><_><internalNodes> 0 -1 360 -5.3342245519161224e-04</internalNodes><leafValues> -8.5773408412933350e-01 8.6348235607147217e-02</leafValues></_><_><internalNodes> 0 -1 363 -7.0113479159772396e-03</internalNodes><leafValues> 7.1390694379806519e-01 -1.8014889955520630e-01</leafValues></_><_><internalNodes> 0 -1 301 -2.8931479901075363e-03</internalNodes><leafValues> -8.3077621459960938e-01 1.8030649423599243e-01</leafValues></_><_><internalNodes> 0 -1 40 -4.1568428277969360e-03</internalNodes><leafValues> 3.5097014904022217e-01 -3.5224801301956177e-01</leafValues></_><_><internalNodes> 0 -1 253 1.8122546607628465e-03</internalNodes><leafValues> 1.3658697903156281e-01 -8.1815427541732788e-01</leafValues></_><_><internalNodes> 0 -1 248 -6.1381617560982704e-03</internalNodes><leafValues> 5.8013999462127686e-01 -1.9969712197780609e-01</leafValues></_><_><internalNodes> 0 -1 231 -3.3478299155831337e-03</internalNodes><leafValues> 6.2480735778808594e-01 -1.7062152922153473e-01</leafValues></_><_><internalNodes> 0 -1 287 3.8195964880287647e-03</internalNodes><leafValues> 1.6947399079799652e-01 -7.9893541336059570e-01</leafValues></_><_><internalNodes> 0 -1 252 -2.2645702119916677e-03</internalNodes><leafValues> 3.0852180719375610e-01 -3.6368641257286072e-01</leafValues></_></weakClassifiers></_><_><maxWeakCount>18</maxWeakCount><stageThreshold>-2.4175093173980713e+00</stageThreshold><weakClassifiers><_><internalNodes> 0 -1 250 1.2243351340293884e-01</internalNodes><leafValues> -7.0105260610580444e-01 3.0181819200515747e-01</leafValues></_><_><internalNodes> 0 -1 139 2.7211628854274750e-02</internalNodes><leafValues> -5.2296817302703857e-01 3.3559340238571167e-01</leafValues></_><_><internalNodes> 0 -1 5 -1.0387386381626129e-01</internalNodes><leafValues> 4.1924497485160828e-01 -4.5556288957595825e-01</leafValues></_><_><internalNodes> 0 -1 238 -1.0569485311862081e-04</internalNodes><leafValues> 2.4756130576133728e-01 -6.1826735734939575e-01</leafValues></_><_><internalNodes> 0 -1 369 1.7783392686396837e-03</internalNodes><leafValues> -3.4615901112556458e-01 3.9916318655014038e-01</leafValues></_><_><internalNodes> 0 -1 8 -1.3656422495841980e-01</internalNodes><leafValues> 3.5702121257781982e-01 -3.9713954925537109e-01</leafValues></_><_><internalNodes> 0 -1 237 1.4192459639161825e-03</internalNodes><leafValues> 1.4684739708900452e-01 -8.9596962928771973e-01</leafValues></_><_><internalNodes> 0 -1 35 4.7463104128837585e-03</internalNodes><leafValues> -4.8813048005104065e-01 2.2397750616073608e-01</leafValues></_><_><internalNodes> 0 -1 300 -1.1974010849371552e-03</internalNodes><leafValues> 2.5500690937042236e-01 -4.5726391673088074e-01</leafValues></_><_><internalNodes> 0 -1 284 -1.6305041499435902e-03</internalNodes><leafValues> -7.3930191993713379e-01 1.5935066342353821e-01</leafValues></_><_><internalNodes> 0 -1 183 -7.8536802902817726e-03</internalNodes><leafValues> 3.0893766880035400e-01 -4.1870510578155518e-01</leafValues></_><_><internalNodes> 0 -1 275 1.3936087489128113e-03</internalNodes><leafValues> 1.1795450001955032e-01 -8.8684093952178955e-01</leafValues></_><_><internalNodes> 0 -1 115 -2.0862095989286900e-03</internalNodes><leafValues> -6.9974267482757568e-01 1.3207980990409851e-01</leafValues></_><_><internalNodes> 0 -1 329 -3.2692236709408462e-04</internalNodes><leafValues> 4.4053772091865540e-01 -2.7623599767684937e-01</leafValues></_><_><internalNodes> 0 -1 429 4.2837686487473547e-04</internalNodes><leafValues> -4.1057020425796509e-01 3.0448409914970398e-01</leafValues></_><_><internalNodes> 0 -1 400 3.2153073698282242e-03</internalNodes><leafValues> 9.8770976066589355e-02 -9.1600573062896729e-01</leafValues></_><_><internalNodes> 0 -1 293 -4.2677186429500580e-02</internalNodes><leafValues> 4.2152288556098938e-01 -2.9619255661964417e-01</leafValues></_><_><internalNodes> 0 -1 401 -1.9139089854434133e-03</internalNodes><leafValues> -7.2943538427352905e-01 1.7458264529705048e-01</leafValues></_></weakClassifiers></_><_><maxWeakCount>19</maxWeakCount><stageThreshold>-2.1425163745880127e+00</stageThreshold><weakClassifiers><_><internalNodes> 0 -1 298 9.8209828138351440e-03</internalNodes><leafValues> -5.2891868352890015e-01 4.2671009898185730e-01</leafValues></_><_><internalNodes> 0 -1 13 3.9976993203163147e-01</internalNodes><leafValues> -6.3021075725555420e-01 2.9127478599548340e-01</leafValues></_><_><internalNodes> 0 -1 71 -5.5841761641204357e-03</internalNodes><leafValues> 4.6747621893882751e-01 -4.2787143588066101e-01</leafValues></_><_><internalNodes> 0 -1 335 -3.2673012465238571e-02</internalNodes><leafValues> 3.2001024484634399e-01 -4.4660842418670654e-01</leafValues></_><_><internalNodes> 0 -1 313 -7.8488711733371019e-04</internalNodes><leafValues> 5.5876708030700684e-01 -2.3693309724330902e-01</leafValues></_><_><internalNodes> 0 -1 165 -2.1512656530831009e-05</internalNodes><leafValues> 3.0535942316055298e-01 -4.6905940771102905e-01</leafValues></_><_><internalNodes> 0 -1 292 -2.7032564394176006e-03</internalNodes><leafValues> 5.6694799661636353e-01 -2.3137083649635315e-01</leafValues></_><_><internalNodes> 0 -1 150 -1.3081366196274757e-03</internalNodes><leafValues> -8.4069722890853882e-01 1.4942888915538788e-01</leafValues></_><_><internalNodes> 0 -1 77 -6.0810660943388939e-03</internalNodes><leafValues> 6.6876000165939331e-01 -2.1188078820705414e-01</leafValues></_><_><internalNodes> 0 -1 362 -2.6380168274044991e-03</internalNodes><leafValues> 3.1955787539482117e-01 -3.5612553358078003e-01</leafValues></_><_><internalNodes> 0 -1 76 2.3317582905292511e-02</internalNodes><leafValues> -1.8796886503696442e-01 6.0074859857559204e-01</leafValues></_><_><internalNodes> 0 -1 423 9.3227368779480457e-04</internalNodes><leafValues> 1.3431854546070099e-01 -8.9082223176956177e-01</leafValues></_><_><internalNodes> 0 -1 2 -3.5700928419828415e-03</internalNodes><leafValues> 2.5786229968070984e-01 -4.0133988857269287e-01</leafValues></_><_><internalNodes> 0 -1 321 8.9364684754400514e-06</internalNodes><leafValues> -2.6244336366653442e-01 4.0029063820838928e-01</leafValues></_><_><internalNodes> 0 -1 412 -1.1636316230578814e-05</internalNodes><leafValues> 2.6241239905357361e-01 -4.8681658506393433e-01</leafValues></_><_><internalNodes> 0 -1 436 -1.7039203085005283e-03</internalNodes><leafValues> -8.5784500837326050e-01 1.0256947576999664e-01</leafValues></_><_><internalNodes> 0 -1 213 -3.7126762326806784e-03</internalNodes><leafValues> 2.5206202268600464e-01 -4.0636482834815979e-01</leafValues></_><_><internalNodes> 0 -1 109 4.8786834813654423e-03</internalNodes><leafValues> 1.2384206801652908e-01 -8.5963970422744751e-01</leafValues></_><_><internalNodes> 0 -1 289 1.5519133303314447e-03</internalNodes><leafValues> -2.4821776151657104e-01 4.7043883800506592e-01</leafValues></_></weakClassifiers></_><_><maxWeakCount>21</maxWeakCount><stageThreshold>-2.2994561195373535e+00</stageThreshold><weakClassifiers><_><internalNodes> 0 -1 157 -5.4324366152286530e-02</internalNodes><leafValues> 3.7846836447715759e-01 -6.3887566328048706e-01</leafValues></_><_><internalNodes> 0 -1 206 -2.5590602308511734e-02</internalNodes><leafValues> 4.6806469559669495e-01 -4.0276440978050232e-01</leafValues></_><_><internalNodes> 0 -1 398 4.6205786056816578e-03</internalNodes><leafValues> -4.6058201789855957e-01 3.3028912544250488e-01</leafValues></_><_><internalNodes> 0 -1 399 -4.9036800861358643e-02</internalNodes><leafValues> 3.4102940559387207e-01 -3.3991816639900208e-01</leafValues></_><_><internalNodes> 0 -1 126 1.1715802247636020e-04</internalNodes><leafValues> 2.2050216794013977e-01 -6.3078564405441284e-01</leafValues></_><_><internalNodes> 0 -1 19 -7.7482140623033047e-03</internalNodes><leafValues> 3.1036549806594849e-01 -4.0502327680587769e-01</leafValues></_><_><internalNodes> 0 -1 432 -3.1501709599979222e-04</internalNodes><leafValues> -7.7323120832443237e-01 1.5677110850811005e-01</leafValues></_><_><internalNodes> 0 -1 320 6.3501382246613503e-03</internalNodes><leafValues> -3.7510105967521667e-01 3.1933331489562988e-01</leafValues></_><_><internalNodes> 0 -1 201 9.0938046574592590e-02</internalNodes><leafValues> -5.5902391672134399e-01 2.0804455876350403e-01</leafValues></_><_><internalNodes> 0 -1 319 -5.9939618222415447e-03</internalNodes><leafValues> 6.2097400426864624e-01 -1.7919345200061798e-01</leafValues></_><_><internalNodes> 0 -1 286 -4.3217441998422146e-03</internalNodes><leafValues> -7.7863532304763794e-01 1.3991466164588928e-01</leafValues></_><_><internalNodes> 0 -1 210 -1.5912868082523346e-02</internalNodes><leafValues> 4.2933222651481628e-01 -2.5931933522224426e-01</leafValues></_><_><internalNodes> 0 -1 9 -2.3858495987951756e-03</internalNodes><leafValues> 2.0818872749805450e-01 -4.9239313602447510e-01</leafValues></_><_><internalNodes> 0 -1 73 -1.7023223917931318e-03</internalNodes><leafValues> -8.0471241474151611e-01 1.0588199645280838e-01</leafValues></_><_><internalNodes> 0 -1 243 -9.6620814874768257e-03</internalNodes><leafValues> 6.3707929849624634e-01 -1.6749173402786255e-01</leafValues></_><_><internalNodes> 0 -1 226 2.3020867258310318e-02</internalNodes><leafValues> -1.8122385442256927e-01 5.7518041133880615e-01</leafValues></_><_><internalNodes> 0 -1 129 -1.8042610026896000e-03</internalNodes><leafValues> -7.7035152912139893e-01 1.4695966243743896e-01</leafValues></_><_><internalNodes> 0 -1 12 -2.1295268088579178e-03</internalNodes><leafValues> 2.2760975360870361e-01 -3.7439376115798950e-01</leafValues></_><_><internalNodes> 0 -1 280 -4.8341332003474236e-03</internalNodes><leafValues> 5.1737380027770996e-01 -1.7244011163711548e-01</leafValues></_><_><internalNodes> 0 -1 435 6.3604628667235374e-03</internalNodes><leafValues> 1.1589330434799194e-01 -9.3122780323028564e-01</leafValues></_><_><internalNodes> 0 -1 297 1.0322488378733397e-03</internalNodes><leafValues> -2.1175816655158997e-01 5.0497257709503174e-01</leafValues></_></weakClassifiers></_><_><maxWeakCount>21</maxWeakCount><stageThreshold>-2.1553039550781250e+00</stageThreshold><weakClassifiers><_><internalNodes> 0 -1 180 -1.4119543135166168e-02</internalNodes><leafValues> 1.7432646453380585e-01 -7.0195627212524414e-01</leafValues></_><_><internalNodes> 0 -1 113 -1.1250662803649902e-01</internalNodes><leafValues> 4.1946446895599365e-01 -4.6564066410064697e-01</leafValues></_><_><internalNodes> 0 -1 50 1.1200642213225365e-02</internalNodes><leafValues> -7.0373266935348511e-01 1.9422540068626404e-01</leafValues></_><_><internalNodes> 0 -1 355 -2.4837774690240622e-03</internalNodes><leafValues> 4.3534246087074280e-01 -3.6464002728462219e-01</leafValues></_><_><internalNodes> 0 -1 256 1.0975822806358337e-01</internalNodes><leafValues> -7.4832183122634888e-01 1.8407177925109863e-01</leafValues></_><_><internalNodes> 0 -1 41 -1.2541828909888864e-03</internalNodes><leafValues> 2.2805407643318176e-01 -4.7331669926643372e-01</leafValues></_><_><internalNodes> 0 -1 123 -3.1680758111178875e-03</internalNodes><leafValues> 7.5548237562179565e-01 -1.2540380656719208e-01</leafValues></_><_><internalNodes> 0 -1 386 3.9062662981450558e-03</internalNodes><leafValues> -1.6378633677959442e-01 5.6157630681991577e-01</leafValues></_><_><internalNodes> 0 -1 186 1.0347133502364159e-03</internalNodes><leafValues> 1.2383497506380081e-01 -6.8798428773880005e-01</leafValues></_><_><internalNodes> 0 -1 381 1.7879495862871408e-03</internalNodes><leafValues> -1.9615872204303741e-01 5.1540791988372803e-01</leafValues></_><_><internalNodes> 0 -1 426 1.4101874548941851e-03</internalNodes><leafValues> -3.2540681958198547e-01 2.7684915065765381e-01</leafValues></_><_><internalNodes> 0 -1 338 -6.8856522440910339e-02</internalNodes><leafValues> 3.0813783407211304e-01 -3.0840849876403809e-01</leafValues></_><_><internalNodes> 0 -1 141 6.4410688355565071e-03</internalNodes><leafValues> -1.3418094813823700e-01 6.9068509340286255e-01</leafValues></_><_><internalNodes> 0 -1 118 -2.3156483657658100e-03</internalNodes><leafValues> -7.1797662973403931e-01 1.4030362665653229e-01</leafValues></_><_><internalNodes> 0 -1 11 -2.2336682304739952e-03</internalNodes><leafValues> 2.5281023979187012e-01 -3.7524014711380005e-01</leafValues></_><_><internalNodes> 0 -1 225 -1.7215341329574585e-02</internalNodes><leafValues> 5.9502625465393066e-01 -1.3980402052402496e-01</leafValues></_><_><internalNodes> 0 -1 133 -9.3943811953067780e-03</internalNodes><leafValues> 4.7436180710792542e-01 -1.8496523797512054e-01</leafValues></_><_><internalNodes> 0 -1 323 4.7549898736178875e-03</internalNodes><leafValues> 9.8712004721164703e-02 -8.7868952751159668e-01</leafValues></_><_><internalNodes> 0 -1 333 -2.0909821614623070e-05</internalNodes><leafValues> 2.5456067919731140e-01 -3.1153529882431030e-01</leafValues></_><_><internalNodes> 0 -1 370 4.9398536793887615e-04</internalNodes><leafValues> -2.8298085927963257e-01 2.8307095170021057e-01</leafValues></_><_><internalNodes> 0 -1 414 6.0060113901272416e-04</internalNodes><leafValues> 1.1530939489603043e-01 -7.6792013645172119e-01</leafValues></_></weakClassifiers></_><_><maxWeakCount>29</maxWeakCount><stageThreshold>-2.3489804267883301e+00</stageThreshold><weakClassifiers><_><internalNodes> 0 -1 70 8.9776571840047836e-03</internalNodes><leafValues> -5.6183743476867676e-01 3.6956521868705750e-01</leafValues></_><_><internalNodes> 0 -1 32 -1.5816792845726013e-01</internalNodes><leafValues> 2.6323920488357544e-01 -4.9640291929244995e-01</leafValues></_><_><internalNodes> 0 -1 282 -8.0376546829938889e-03</internalNodes><leafValues> 4.5129141211509705e-01 -2.9822668433189392e-01</leafValues></_><_><internalNodes> 0 -1 25 3.4195516258478165e-02</internalNodes><leafValues> -6.7588126659393311e-01 1.6541513800621033e-01</leafValues></_><_><internalNodes> 0 -1 178 3.4074499271810055e-03</internalNodes><leafValues> -1.6143997013568878e-01 6.2242805957794189e-01</leafValues></_><_><internalNodes> 0 -1 127 7.6695560710504651e-04</internalNodes><leafValues> 1.1982508748769760e-01 -8.5616058111190796e-01</leafValues></_><_><internalNodes> 0 -1 346 -9.5592509023845196e-04</internalNodes><leafValues> 4.2973235249519348e-01 -2.6401036977767944e-01</leafValues></_><_><internalNodes> 0 -1 328 -2.6844870299100876e-03</internalNodes><leafValues> 6.2177610397338867e-01 -1.7935539782047272e-01</leafValues></_><_><internalNodes> 0 -1 125 -8.6441263556480408e-04</internalNodes><leafValues> -8.9027363061904907e-01 1.6891370713710785e-01</leafValues></_><_><internalNodes> 0 -1 17 -7.1838923031464219e-04</internalNodes><leafValues> 2.3504842817783356e-01 -3.6958092451095581e-01</leafValues></_><_><internalNodes> 0 -1 402 -2.9620039276778698e-03</internalNodes><leafValues> -7.3128175735473633e-01 1.1093156039714813e-01</leafValues></_><_><internalNodes> 0 -1 203 -2.0719538442790508e-03</internalNodes><leafValues> 4.8678833246231079e-01 -2.0374223589897156e-01</leafValues></_><_><internalNodes> 0 -1 72 7.1579008363187313e-04</internalNodes><leafValues> 1.5722170472145081e-01 -6.3164466619491577e-01</leafValues></_><_><internalNodes> 0 -1 247 -3.7689660675823689e-03</internalNodes><leafValues> 5.3074717521667480e-01 -1.7550475895404816e-01</leafValues></_><_><internalNodes> 0 -1 83 2.7205436490476131e-03</internalNodes><leafValues> 1.1734758317470551e-01 -7.4861669540405273e-01</leafValues></_><_><internalNodes> 0 -1 181 -8.7366122752428055e-03</internalNodes><leafValues> 2.0984458923339844e-01 -4.0581440925598145e-01</leafValues></_><_><internalNodes> 0 -1 218 -3.0863685533404350e-03</internalNodes><leafValues> -8.3360356092453003e-01 1.1163006722927094e-01</leafValues></_><_><internalNodes> 0 -1 367 -4.3491711840033531e-03</internalNodes><leafValues> 2.4611057341098785e-01 -3.1630355119705200e-01</leafValues></_><_><internalNodes> 0 -1 387 1.3614213094115257e-03</internalNodes><leafValues> 1.1076419055461884e-01 -7.4408733844757080e-01</leafValues></_><_><internalNodes> 0 -1 97 -8.2276985049247742e-03</internalNodes><leafValues> 7.4094885587692261e-01 -1.3381415605545044e-01</leafValues></_><_><internalNodes> 0 -1 190 1.6434363787993789e-03</internalNodes><leafValues> 1.2239096313714981e-01 -8.8936501741409302e-01</leafValues></_><_><internalNodes> 0 -1 54 -3.6860201507806778e-02</internalNodes><leafValues> 5.8928781747817993e-01 -1.6622540354728699e-01</leafValues></_><_><internalNodes> 0 -1 45 1.6174234449863434e-02</internalNodes><leafValues> -1.8173146247863770e-01 4.8826876282691956e-01</leafValues></_><_><internalNodes> 0 -1 56 -2.8101573698222637e-03</internalNodes><leafValues> -7.3951512575149536e-01 1.1543802917003632e-01</leafValues></_><_><internalNodes> 0 -1 143 -3.1126884277909994e-03</internalNodes><leafValues> 2.5143083930015564e-01 -3.0728197097778320e-01</leafValues></_><_><internalNodes> 0 -1 147 -6.2293475493788719e-03</internalNodes><leafValues> -7.0339906215667725e-01 1.2197428196668625e-01</leafValues></_><_><internalNodes> 0 -1 57 2.3273413535207510e-03</internalNodes><leafValues> -1.9475060701370239e-01 4.5845252275466919e-01</leafValues></_><_><internalNodes> 0 -1 270 3.7977925967425108e-04</internalNodes><leafValues> -8.6239975690841675e-01 1.1034385114908218e-01</leafValues></_><_><internalNodes> 0 -1 27 3.7618045462295413e-04</internalNodes><leafValues> -5.5700623989105225e-01 1.2368646264076233e-01</leafValues></_></weakClassifiers></_><_><maxWeakCount>27</maxWeakCount><stageThreshold>-2.1155807971954346e+00</stageThreshold><weakClassifiers><_><internalNodes> 0 -1 162 -1.4440860599279404e-02</internalNodes><leafValues> 4.1200704872608185e-03 -7.7401995658874512e-01</leafValues></_><_><internalNodes> 0 -1 63 -2.6358187198638916e-02</internalNodes><leafValues> 3.7578332424163818e-01 -4.2436745762825012e-01</leafValues></_><_><internalNodes> 0 -1 131 5.4944619536399841e-02</internalNodes><leafValues> -6.6073668003082275e-01 1.5125975012779236e-01</leafValues></_><_><internalNodes> 0 -1 209 5.5289696902036667e-03</internalNodes><leafValues> -1.3225190341472626e-01 6.6496396064758301e-01</leafValues></_><_><internalNodes> 0 -1 274 -2.2258920944295824e-04</internalNodes><leafValues> 2.0627203583717346e-01 -4.7239285707473755e-01</leafValues></_><_><internalNodes> 0 -1 207 -5.3266133181750774e-03</internalNodes><leafValues> 7.1357196569442749e-01 -1.3342204689979553e-01</leafValues></_><_><internalNodes> 0 -1 224 1.5343809500336647e-03</internalNodes><leafValues> 1.3930812478065491e-01 -7.0702165365219116e-01</leafValues></_><_><internalNodes> 0 -1 368 -2.3117173986975104e-04</internalNodes><leafValues> 2.8288370370864868e-01 -3.4608900547027588e-01</leafValues></_><_><internalNodes> 0 -1 337 4.7432640567421913e-03</internalNodes><leafValues> -3.7065285444259644e-01 2.3776219785213470e-01</leafValues></_><_><internalNodes> 0 -1 395 1.7073599155992270e-03</internalNodes><leafValues> 1.1961345374584198e-01 -7.1837407350540161e-01</leafValues></_><_><internalNodes> 0 -1 204 3.3179663587361574e-03</internalNodes><leafValues> -1.6308397054672241e-01 5.5430191755294800e-01</leafValues></_><_><internalNodes> 0 -1 62 1.0381499305367470e-03</internalNodes><leafValues> 1.2698590755462646e-01 -6.9025301933288574e-01</leafValues></_><_><internalNodes> 0 -1 234 3.8137268275022507e-03</internalNodes><leafValues> -1.9013097882270813e-01 5.0846195220947266e-01</leafValues></_><_><internalNodes> 0 -1 66 -1.6753638628870249e-03</internalNodes><leafValues> -5.5713194608688354e-01 1.9362448155879974e-01</leafValues></_><_><internalNodes> 0 -1 124 8.1303180195391178e-04</internalNodes><leafValues> 6.2405787408351898e-02 -8.1680852174758911e-01</leafValues></_><_><internalNodes> 0 -1 185 1.0343375615775585e-03</internalNodes><leafValues> -2.0191395282745361e-01 3.9182040095329285e-01</leafValues></_><_><internalNodes> 0 -1 409 3.8423817604780197e-03</internalNodes><leafValues> -4.8044168949127197e-01 1.6804304718971252e-01</leafValues></_><_><internalNodes> 0 -1 170 4.1171077638864517e-02</internalNodes><leafValues> -1.6401942074298859e-01 4.9736672639846802e-01</leafValues></_><_><internalNodes> 0 -1 42 -6.6835293546319008e-04</internalNodes><leafValues> 2.7280482649803162e-01 -2.6693114638328552e-01</leafValues></_><_><internalNodes> 0 -1 80 1.3675373047590256e-03</internalNodes><leafValues> 1.0162965208292007e-01 -7.6484221220016479e-01</leafValues></_><_><internalNodes> 0 -1 171 -1.0351315140724182e-02</internalNodes><leafValues> 5.4007697105407715e-01 -1.6311061382293701e-01</leafValues></_><_><internalNodes> 0 -1 415 1.4257258735597134e-03</internalNodes><leafValues> 1.2878055870532990e-01 -6.4529114961624146e-01</leafValues></_><_><internalNodes> 0 -1 279 -2.3519895039498806e-03</internalNodes><leafValues> 4.8193418979644775e-01 -1.8002751469612122e-01</leafValues></_><_><internalNodes> 0 -1 291 -6.8973554298281670e-03</internalNodes><leafValues> 6.2430697679519653e-01 -1.2957496941089630e-01</leafValues></_><_><internalNodes> 0 -1 339 -5.7055137585848570e-04</internalNodes><leafValues> 3.2188442349433899e-01 -2.3714391887187958e-01</leafValues></_><_><internalNodes> 0 -1 309 2.7320482768118382e-03</internalNodes><leafValues> 1.2649464607238770e-01 -6.6773378849029541e-01</leafValues></_><_><internalNodes> 0 -1 308 -9.0148195158690214e-04</internalNodes><leafValues> 3.2764738798141479e-01 -2.3038703203201294e-01</leafValues></_></weakClassifiers></_><_><maxWeakCount>26</maxWeakCount><stageThreshold>-1.9504672288894653e+00</stageThreshold><weakClassifiers><_><internalNodes> 0 -1 158 9.1184210032224655e-03</internalNodes><leafValues> -5.9335684776306152e-01 1.7670285701751709e-01</leafValues></_><_><internalNodes> 0 -1 325 -3.0442891642451286e-02</internalNodes><leafValues> 4.0569597482681274e-01 -3.1124138832092285e-01</leafValues></_><_><internalNodes> 0 -1 177 -4.0545323863625526e-03</internalNodes><leafValues> 4.2327123880386353e-01 -2.4451312422752380e-01</leafValues></_><_><internalNodes> 0 -1 29 -3.4482508897781372e-02</internalNodes><leafValues> 2.4242651462554932e-01 -4.1615551710128784e-01</leafValues></_><_><internalNodes> 0 -1 146 2.9183097649365664e-04</internalNodes><leafValues> -2.6767709851264954e-01 3.6495050787925720e-01</leafValues></_><_><internalNodes> 0 -1 411 5.4502617567777634e-03</internalNodes><leafValues> -5.8827155828475952e-01 1.3310895860195160e-01</leafValues></_><_><internalNodes> 0 -1 350 -5.1264895591884851e-04</internalNodes><leafValues> 3.4145572781562805e-01 -2.5100165605545044e-01</leafValues></_><_><internalNodes> 0 -1 188 -2.2732177749276161e-03</internalNodes><leafValues> -9.2265713214874268e-01 1.0106164216995239e-01</leafValues></_><_><internalNodes> 0 -1 249 1.8877802649512887e-03</internalNodes><leafValues> -1.5675495564937592e-01 5.2335411310195923e-01</leafValues></_><_><internalNodes> 0 -1 416 2.0696776919066906e-03</internalNodes><leafValues> 1.0489568859338760e-01 -8.6919295787811279e-01</leafValues></_><_><internalNodes> 0 -1 314 -1.1676822323352098e-03</internalNodes><leafValues> 4.9310597777366638e-01 -1.7289987206459045e-01</leafValues></_><_><internalNodes> 0 -1 422 -2.1449133782880381e-05</internalNodes><leafValues> 2.0084649324417114e-01 -3.8820266723632812e-01</leafValues></_><_><internalNodes> 0 -1 189 -5.5822627618908882e-03</internalNodes><leafValues> -8.1532657146453857e-01 9.2777691781520844e-02</leafValues></_><_><internalNodes> 0 -1 169 -2.2989239543676376e-02</internalNodes><leafValues> 2.5225338339805603e-01 -3.1454354524612427e-01</leafValues></_><_><internalNodes> 0 -1 106 -9.2769861221313477e-03</internalNodes><leafValues> 4.7514647245407104e-01 -1.7021639645099640e-01</leafValues></_><_><internalNodes> 0 -1 244 -2.9720123857259750e-03</internalNodes><leafValues> -7.3333436250686646e-01 1.2003493309020996e-01</leafValues></_><_><internalNodes> 0 -1 152 1.1808630079030991e-03</internalNodes><leafValues> -2.2338995337486267e-01 3.3532744646072388e-01</leafValues></_><_><internalNodes> 0 -1 167 2.2484267537947744e-04</internalNodes><leafValues> -4.9583855271339417e-01 1.3097240030765533e-01</leafValues></_><_><internalNodes> 0 -1 96 -2.3206248879432678e-03</internalNodes><leafValues> 5.1399576663970947e-01 -1.5032118558883667e-01</leafValues></_><_><internalNodes> 0 -1 374 -9.3477853806689382e-04</internalNodes><leafValues> 2.3600234091281891e-01 -3.0892497301101685e-01</leafValues></_><_><internalNodes> 0 -1 114 1.0947911068797112e-03</internalNodes><leafValues> 1.1206363141536713e-01 -6.4582705497741699e-01</leafValues></_><_><internalNodes> 0 -1 283 -2.0122453570365906e-03</internalNodes><leafValues> -8.8148635625839233e-01 6.5485052764415741e-02</leafValues></_><_><internalNodes> 0 -1 263 -1.8757170764729381e-03</internalNodes><leafValues> 5.4144608974456787e-01 -1.4758668839931488e-01</leafValues></_><_><internalNodes> 0 -1 378 5.1770108984783292e-04</internalNodes><leafValues> -2.4142688512802124e-01 2.8320926427841187e-01</leafValues></_><_><internalNodes> 0 -1 266 1.9116641487926245e-03</internalNodes><leafValues> -1.0029447078704834e-01 7.0952653884887695e-01</leafValues></_><_><internalNodes> 0 -1 400 -3.1045016366988420e-03</internalNodes><leafValues> -6.8639713525772095e-01 1.1371084302663803e-01</leafValues></_></weakClassifiers></_><_><maxWeakCount>33</maxWeakCount><stageThreshold>-2.3024122714996338e+00</stageThreshold><weakClassifiers><_><internalNodes> 0 -1 98 -2.3955272044986486e-03</internalNodes><leafValues> 1.3214990496635437e-01 -5.7099699974060059e-01</leafValues></_><_><internalNodes> 0 -1 38 -1.6619892790913582e-02</internalNodes><leafValues> 2.1574997901916504e-01 -4.9331834912300110e-01</leafValues></_><_><internalNodes> 0 -1 260 8.0858990550041199e-03</internalNodes><leafValues> -3.1839320063591003e-01 2.9822015762329102e-01</leafValues></_><_><internalNodes> 0 -1 87 2.2138881683349609e-01</internalNodes><leafValues> -6.2300831079483032e-01 1.5646590292453766e-01</leafValues></_><_><internalNodes> 0 -1 336 -6.5737375989556313e-03</internalNodes><leafValues> 2.8237304091453552e-01 -3.1596186757087708e-01</leafValues></_><_><internalNodes> 0 -1 164 -1.4143132138997316e-03</internalNodes><leafValues> -8.2020753622055054e-01 9.4131633639335632e-02</leafValues></_><_><internalNodes> 0 -1 144 -7.6246391981840134e-03</internalNodes><leafValues> 3.0615970492362976e-01 -2.9116269946098328e-01</leafValues></_><_><internalNodes> 0 -1 216 2.1822322160005569e-03</internalNodes><leafValues> -2.0152802765369415e-01 3.5144534707069397e-01</leafValues></_><_><internalNodes> 0 -1 223 5.0136435311287642e-04</internalNodes><leafValues> 1.0619467496871948e-01 -7.5743424892425537e-01</leafValues></_><_><internalNodes> 0 -1 176 -1.0967953130602837e-02</internalNodes><leafValues> 4.7501939535140991e-01 -1.6712650656700134e-01</leafValues></_><_><internalNodes> 0 -1 271 -1.9456767477095127e-03</internalNodes><leafValues> 3.7464210391044617e-01 -1.9320696592330933e-01</leafValues></_><_><internalNodes> 0 -1 84 2.0305952057242393e-03</internalNodes><leafValues> 1.0753250122070312e-01 -7.9317349195480347e-01</leafValues></_><_><internalNodes> 0 -1 4 -1.6407810151576996e-02</internalNodes><leafValues> 3.3729887008666992e-01 -2.1949280798435211e-01</leafValues></_><_><internalNodes> 0 -1 394 -9.1673955321311951e-03</internalNodes><leafValues> -8.6851239204406738e-01 8.1812225282192230e-02</leafValues></_><_><internalNodes> 0 -1 318 -2.1892539225518703e-03</internalNodes><leafValues> 3.8397195935249329e-01 -1.8172509968280792e-01</leafValues></_><_><internalNodes> 0 -1 407 -1.7004612600430846e-03</internalNodes><leafValues> 2.7079847455024719e-01 -2.4905119836330414e-01</leafValues></_><_><internalNodes> 0 -1 304 1.1698869056999683e-03</internalNodes><leafValues> 8.7001912295818329e-02 -8.0186748504638672e-01</leafValues></_><_><internalNodes> 0 -1 281 -2.3348843678832054e-03</internalNodes><leafValues> 3.3526310324668884e-01 -2.0001913607120514e-01</leafValues></_><_><internalNodes> 0 -1 288 -1.0864225216209888e-02</internalNodes><leafValues> -8.2589817047119141e-01 8.6382418870925903e-02</leafValues></_><_><internalNodes> 0 -1 262 -2.8856033459305763e-03</internalNodes><leafValues> 2.4446386098861694e-01 -2.8714984655380249e-01</leafValues></_><_><internalNodes> 0 -1 229 -4.0238291025161743e-02</internalNodes><leafValues> 7.1287608146667480e-01 -8.9140780270099640e-02</leafValues></_><_><internalNodes> 0 -1 174 2.6234574615955353e-03</internalNodes><leafValues> -1.4696173369884491e-01 4.5181566476821899e-01</leafValues></_><_><internalNodes> 0 -1 60 -1.2680586660280824e-03</internalNodes><leafValues> -6.7067688703536987e-01 1.0545003414154053e-01</leafValues></_><_><internalNodes> 0 -1 191 -1.2183763086795807e-02</internalNodes><leafValues> -8.1321674585342407e-01 6.7911095917224884e-02</leafValues></_><_><internalNodes> 0 -1 212 -2.8052059933543205e-03</internalNodes><leafValues> 1.8257160484790802e-01 -3.7711521983146667e-01</leafValues></_><_><internalNodes> 0 -1 230 -2.5444740895181894e-03</internalNodes><leafValues> 5.2177333831787109e-01 -1.3426034152507782e-01</leafValues></_><_><internalNodes> 0 -1 1 3.6537696141749620e-03</internalNodes><leafValues> 1.0427054017782211e-01 -7.2954106330871582e-01</leafValues></_><_><internalNodes> 0 -1 200 -4.4142119586467743e-03</internalNodes><leafValues> 3.6430487036705017e-01 -1.9696924090385437e-01</leafValues></_><_><internalNodes> 0 -1 104 -9.4707820608164184e-06</internalNodes><leafValues> 1.8109673261642456e-01 -4.1158673167228699e-01</leafValues></_><_><internalNodes> 0 -1 43 -7.2161958087235689e-04</internalNodes><leafValues> -8.6868321895599365e-01 6.7110501229763031e-02</leafValues></_><_><internalNodes> 0 -1 380 -4.0241992101073265e-03</internalNodes><leafValues> 4.0138471126556396e-01 -1.7722149193286896e-01</leafValues></_><_><internalNodes> 0 -1 107 -2.9851738363504410e-02</internalNodes><leafValues> 4.9397262930870056e-01 -1.4045415818691254e-01</leafValues></_><_><internalNodes> 0 -1 64 8.7689550127834082e-04</internalNodes><leafValues> 1.0284928977489471e-01 -7.1103638410568237e-01</leafValues></_></weakClassifiers></_><_><maxWeakCount>33</maxWeakCount><stageThreshold>-2.0989203453063965e+00</stageThreshold><weakClassifiers><_><internalNodes> 0 -1 70 1.1867312714457512e-02</internalNodes><leafValues> -5.0694149732589722e-01 3.2905295491218567e-01</leafValues></_><_><internalNodes> 0 -1 261 -2.8897586744278669e-03</internalNodes><leafValues> 3.8092100620269775e-01 -3.0010512471199036e-01</leafValues></_><_><internalNodes> 0 -1 311 -3.2764408737421036e-02</internalNodes><leafValues> 2.3932297527790070e-01 -3.6645385622978210e-01</leafValues></_><_><internalNodes> 0 -1 331 3.4142550430260599e-04</internalNodes><leafValues> -5.4146367311477661e-01 1.4294652640819550e-01</leafValues></_><_><internalNodes> 0 -1 0 -1.5018584672361612e-03</internalNodes><leafValues> 2.7296766638755798e-01 -2.8879064321517944e-01</leafValues></_><_><internalNodes> 0 -1 194 -5.4610758088529110e-03</internalNodes><leafValues> 4.6357405185699463e-01 -1.9577334821224213e-01</leafValues></_><_><internalNodes> 0 -1 39 -1.2981598265469074e-03</internalNodes><leafValues> 2.5893473625183105e-01 -3.0281496047973633e-01</leafValues></_><_><internalNodes> 0 -1 403 -2.8486489318311214e-03</internalNodes><leafValues> -6.3834649324417114e-01 1.0344040393829346e-01</leafValues></_><_><internalNodes> 0 -1 345 -2.7145810890942812e-03</internalNodes><leafValues> 2.9705071449279785e-01 -2.2807429730892181e-01</leafValues></_><_><internalNodes> 0 -1 347 -2.6089751627296209e-03</internalNodes><leafValues> 5.2000129222869873e-01 -1.2997689843177795e-01</leafValues></_><_><internalNodes> 0 -1 432 4.8102444270625710e-04</internalNodes><leafValues> 9.3182444572448730e-02 -7.4117958545684814e-01</leafValues></_><_><internalNodes> 0 -1 179 8.0990709830075502e-04</internalNodes><leafValues> -1.7429848015308380e-01 4.0860199928283691e-01</leafValues></_><_><internalNodes> 0 -1 246 3.8471020758152008e-02</internalNodes><leafValues> 1.0699735581874847e-01 -7.6012992858886719e-01</leafValues></_><_><internalNodes> 0 -1 428 5.5016460828483105e-04</internalNodes><leafValues> -4.0299686789512634e-01 1.4323469996452332e-01</leafValues></_><_><internalNodes> 0 -1 324 -4.0944153442978859e-03</internalNodes><leafValues> -6.6807889938354492e-01 1.0562069714069366e-01</leafValues></_><_><internalNodes> 0 -1 295 2.1781353279948235e-03</internalNodes><leafValues> -1.6219355165958405e-01 4.1793522238731384e-01</leafValues></_><_><internalNodes> 0 -1 93 -3.1141745857894421e-03</internalNodes><leafValues> -7.3363327980041504e-01 1.0429380834102631e-01</leafValues></_><_><internalNodes> 0 -1 312 -5.7772491127252579e-03</internalNodes><leafValues> 4.2059725522994995e-01 -1.8412010371685028e-01</leafValues></_><_><internalNodes> 0 -1 74 5.9628085000440478e-04</internalNodes><leafValues> 9.9695973098278046e-02 -7.5922375917434692e-01</leafValues></_><_><internalNodes> 0 -1 122 -9.5269642770290375e-04</internalNodes><leafValues> 2.6402953267097473e-01 -2.4593774974346161e-01</leafValues></_><_><internalNodes> 0 -1 306 -5.5803088471293449e-03</internalNodes><leafValues> -7.9043531417846680e-01 8.4900975227355957e-02</leafValues></_><_><internalNodes> 0 -1 413 -2.1490177459781989e-05</internalNodes><leafValues> 1.6354773938655853e-01 -3.6217406392097473e-01</leafValues></_><_><internalNodes> 0 -1 94 -6.2995974440127611e-04</internalNodes><leafValues> 4.9257901310920715e-01 -1.3219694793224335e-01</leafValues></_><_><internalNodes> 0 -1 85 -4.8585343174636364e-03</internalNodes><leafValues> -8.1588011980056763e-01 8.4575332701206207e-02</leafValues></_><_><internalNodes> 0 -1 175 -4.9785873852670193e-03</internalNodes><leafValues> 3.9007559418678284e-01 -1.5893274545669556e-01</leafValues></_><_><internalNodes> 0 -1 277 -8.4364268695935607e-04</internalNodes><leafValues> -9.0926456451416016e-01 7.6266326010227203e-02</leafValues></_><_><internalNodes> 0 -1 79 3.0787896364927292e-02</internalNodes><leafValues> -1.3204246759414673e-01 5.3702652454376221e-01</leafValues></_><_><internalNodes> 0 -1 111 -3.1094173900783062e-03</internalNodes><leafValues> 4.7914361953735352e-01 -1.6342858970165253e-01</leafValues></_><_><internalNodes> 0 -1 372 5.1187863573431969e-04</internalNodes><leafValues> -1.2685360014438629e-01 4.7500577569007874e-01</leafValues></_><_><internalNodes> 0 -1 421 8.9380698045715690e-04</internalNodes><leafValues> 8.9814528822898865e-02 -8.4581136703491211e-01</leafValues></_><_><internalNodes> 0 -1 276 5.2965218201279640e-03</internalNodes><leafValues> 5.9805873781442642e-02 -7.2389185428619385e-01</leafValues></_><_><internalNodes> 0 -1 214 -1.9021250773221254e-03</internalNodes><leafValues> 3.8926011323928833e-01 -1.6333357989788055e-01</leafValues></_><_><internalNodes> 0 -1 236 -4.5052194036543369e-04</internalNodes><leafValues> 2.0116631686687469e-01 -3.3145910501480103e-01</leafValues></_></weakClassifiers></_><_><maxWeakCount>32</maxWeakCount><stageThreshold>-1.9525283575057983e+00</stageThreshold><weakClassifiers><_><internalNodes> 0 -1 135 -4.1663486510515213e-02</internalNodes><leafValues> 5.5284552276134491e-02 -6.0338985919952393e-01</leafValues></_><_><internalNodes> 0 -1 197 -1.0865620337426662e-02</internalNodes><leafValues> 2.3815572261810303e-01 -4.7373777627944946e-01</leafValues></_><_><internalNodes> 0 -1 156 4.3631412088871002e-02</internalNodes><leafValues> -6.3306719064712524e-01 1.2606912851333618e-01</leafValues></_><_><internalNodes> 0 -1 18 -3.4842663444578648e-03</internalNodes><leafValues> 2.4710351228713989e-01 -3.7063336372375488e-01</leafValues></_><_><internalNodes> 0 -1 364 3.6684650694951415e-04</internalNodes><leafValues> -3.3839744329452515e-01 2.4293950200080872e-01</leafValues></_><_><internalNodes> 0 -1 388 -1.1943355202674866e-02</internalNodes><leafValues> 1.3308474421501160e-01 -5.7300138473510742e-01</leafValues></_><_><internalNodes> 0 -1 46 -4.1213870048522949e-02</internalNodes><leafValues> 2.0949803292751312e-01 -3.3157035708427429e-01</leafValues></_><_><internalNodes> 0 -1 351 1.6849025851115584e-03</internalNodes><leafValues> -1.3122043013572693e-01 6.0211044549942017e-01</leafValues></_><_><internalNodes> 0 -1 315 -4.4242879375815392e-03</internalNodes><leafValues> 5.7164359092712402e-01 -1.2203796952962875e-01</leafValues></_><_><internalNodes> 0 -1 220 -4.5647937804460526e-04</internalNodes><leafValues> 1.8763776123523712e-01 -3.5940486192703247e-01</leafValues></_><_><internalNodes> 0 -1 433 -4.1498302016407251e-04</internalNodes><leafValues> -7.2123831510543823e-01 1.0053583979606628e-01</leafValues></_><_><internalNodes> 0 -1 316 -9.0683577582240105e-04</internalNodes><leafValues> 4.1659510135650635e-01 -1.6449242830276489e-01</leafValues></_><_><internalNodes> 0 -1 406 -2.3462488315999508e-03</internalNodes><leafValues> -5.6380867958068848e-01 1.1217588186264038e-01</leafValues></_><_><internalNodes> 0 -1 310 -4.0879640728235245e-03</internalNodes><leafValues> 3.4371164441108704e-01 -1.9293478131294250e-01</leafValues></_><_><internalNodes> 0 -1 264 -2.9566925950348377e-03</internalNodes><leafValues> 5.6741285324096680e-01 -1.1913830041885376e-01</leafValues></_><_><internalNodes> 0 -1 149 -8.1443029921501875e-04</internalNodes><leafValues> -7.3413574695587158e-01 1.0298055410385132e-01</leafValues></_><_><internalNodes> 0 -1 391 -4.5161526650190353e-03</internalNodes><leafValues> -8.7702554464340210e-01 4.3149452656507492e-02</leafValues></_><_><internalNodes> 0 -1 163 5.3953705355525017e-04</internalNodes><leafValues> -1.8678009510040283e-01 3.0809342861175537e-01</leafValues></_><_><internalNodes> 0 -1 48 -5.1344232633709908e-03</internalNodes><leafValues> 2.9551190137863159e-01 -1.9588333368301392e-01</leafValues></_><_><internalNodes> 0 -1 334 -5.3994879126548767e-03</internalNodes><leafValues> -7.6995223760604858e-01 8.0401718616485596e-02</leafValues></_><_><internalNodes> 0 -1 361 -4.0344623848795891e-03</internalNodes><leafValues> 1.9652767479419708e-01 -3.3130174875259399e-01</leafValues></_><_><internalNodes> 0 -1 173 -1.6165645793080330e-03</internalNodes><leafValues> 4.3060293793678284e-01 -1.3483637571334839e-01</leafValues></_><_><internalNodes> 0 -1 193 2.0152200013399124e-03</internalNodes><leafValues> -1.9218961894512177e-01 3.8772243261337280e-01</leafValues></_><_><internalNodes> 0 -1 90 -4.9675828777253628e-03</internalNodes><leafValues> -5.3240501880645752e-01 1.0635517537593842e-01</leafValues></_><_><internalNodes> 0 -1 88 7.2865746915340424e-04</internalNodes><leafValues> 1.2363310903310776e-01 -5.0204539299011230e-01</leafValues></_><_><internalNodes> 0 -1 99 -6.6922847181558609e-03</internalNodes><leafValues> 3.2029145956039429e-01 -1.9984306395053864e-01</leafValues></_><_><internalNodes> 0 -1 267 -1.0850427672266960e-02</internalNodes><leafValues> 4.6628344058990479e-01 -1.4559119939804077e-01</leafValues></_><_><internalNodes> 0 -1 134 -4.0927059017121792e-03</internalNodes><leafValues> -7.5968468189239502e-01 9.1053627431392670e-02</leafValues></_><_><internalNodes> 0 -1 343 -5.1976239774376154e-04</internalNodes><leafValues> 2.3316526412963867e-01 -2.4070148169994354e-01</leafValues></_><_><internalNodes> 0 -1 273 1.5834886580705643e-03</internalNodes><leafValues> 7.5606092810630798e-02 -8.1434649229049683e-01</leafValues></_><_><internalNodes> 0 -1 377 2.5258772075176239e-03</internalNodes><leafValues> 7.1212090551853180e-02 -6.4152264595031738e-01</leafValues></_><_><internalNodes> 0 -1 294 -6.4110197126865387e-03</internalNodes><leafValues> 1.3842451572418213e-01 -4.0344724059104919e-01</leafValues></_></weakClassifiers></_><_><maxWeakCount>37</maxWeakCount><stageThreshold>-1.7865126132965088e+00</stageThreshold><weakClassifiers><_><internalNodes> 0 -1 344 2.8933521825820208e-03</internalNodes><leafValues> -5.7471877336502075e-01 6.4430713653564453e-02</leafValues></_><_><internalNodes> 0 -1 138 7.4730431661009789e-03</internalNodes><leafValues> -3.8049325346946716e-01 2.3494899272918701e-01</leafValues></_><_><internalNodes> 0 -1 251 -6.5146774053573608e-02</internalNodes><leafValues> 2.2291953861713409e-01 -3.8281199336051941e-01</leafValues></_><_><internalNodes> 0 -1 4 -1.1959571391344070e-02</internalNodes><leafValues> 3.4198635816574097e-01 -2.0888330042362213e-01</leafValues></_><_><internalNodes> 0 -1 327 -1.1545746820047498e-03</internalNodes><leafValues> 3.9730092883110046e-01 -1.6143029928207397e-01</leafValues></_><_><internalNodes> 0 -1 307 -7.0543761830776930e-04</internalNodes><leafValues> 4.5563200116157532e-01 -1.8039970099925995e-01</leafValues></_><_><internalNodes> 0 -1 357 -2.0391638099681586e-04</internalNodes><leafValues> 1.4081598818302155e-01 -4.4924658536911011e-01</leafValues></_><_><internalNodes> 0 -1 120 3.1883255578577518e-03</internalNodes><leafValues> -1.8688555061817169e-01 3.3467629551887512e-01</leafValues></_><_><internalNodes> 0 -1 137 2.9184732120484114e-03</internalNodes><leafValues> -8.5876405239105225e-02 6.0441553592681885e-01</leafValues></_><_><internalNodes> 0 -1 404 1.3340110890567303e-03</internalNodes><leafValues> 9.7894616425037384e-02 -6.0843747854232788e-01</leafValues></_><_><internalNodes> 0 -1 278 -2.5400957092642784e-03</internalNodes><leafValues> 1.4234000444412231e-01 -4.1487738490104675e-01</leafValues></_><_><internalNodes> 0 -1 303 4.6425824984908104e-04</internalNodes><leafValues> 7.7153980731964111e-02 -7.0195323228836060e-01</leafValues></_><_><internalNodes> 0 -1 168 -1.7602888867259026e-02</internalNodes><leafValues> 4.3264216184616089e-01 -1.4172217249870300e-01</leafValues></_><_><internalNodes> 0 -1 82 6.3159279525279999e-03</internalNodes><leafValues> -2.2461423277854919e-01 3.5265856981277466e-01</leafValues></_><_><internalNodes> 0 -1 202 -6.2454580329358578e-03</internalNodes><leafValues> 3.7701067328453064e-01 -1.5288721024990082e-01</leafValues></_><_><internalNodes> 0 -1 44 -3.7945236545056105e-04</internalNodes><leafValues> 1.7700144648551941e-01 -3.3981314301490784e-01</leafValues></_><_><internalNodes> 0 -1 405 -2.7453149668872356e-03</internalNodes><leafValues> -5.9455257654190063e-01 9.5631487667560577e-02</leafValues></_><_><internalNodes> 0 -1 195 3.2026814296841621e-03</internalNodes><leafValues> -1.4846612513065338e-01 4.1292956471443176e-01</leafValues></_><_><internalNodes> 0 -1 285 6.4894882962107658e-04</internalNodes><leafValues> 6.7569591104984283e-02 -8.1585401296615601e-01</leafValues></_><_><internalNodes> 0 -1 65 -2.2712119389325380e-03</internalNodes><leafValues> -7.5612920522689819e-01 5.6663148105144501e-02</leafValues></_><_><internalNodes> 0 -1 20 -1.0794060304760933e-02</internalNodes><leafValues> -8.0381053686141968e-01 5.3470868617296219e-02</leafValues></_><_><internalNodes> 0 -1 354 2.8531695716083050e-04</internalNodes><leafValues> -1.7324179410934448e-01 3.2566028833389282e-01</leafValues></_><_><internalNodes> 0 -1 375 1.3045215746387839e-03</internalNodes><leafValues> -2.2963710129261017e-01 2.3908171057701111e-01</leafValues></_><_><internalNodes> 0 -1 145 -2.1044321358203888e-02</internalNodes><leafValues> -9.9003052711486816e-01 5.4065823554992676e-02</leafValues></_><_><internalNodes> 0 -1 59 2.2424054332077503e-03</internalNodes><leafValues> 6.0963932424783707e-02 -6.8342024087905884e-01</leafValues></_><_><internalNodes> 0 -1 26 3.9557932177558541e-04</internalNodes><leafValues> -2.7064335346221924e-01 1.8907253444194794e-01</leafValues></_><_><internalNodes> 0 -1 208 9.3961199745535851e-03</internalNodes><leafValues> -1.0602454841136932e-01 5.2877515554428101e-01</leafValues></_><_><internalNodes> 0 -1 196 -4.4953441247344017e-03</internalNodes><leafValues> 5.0144302845001221e-01 -1.1269890516996384e-01</leafValues></_><_><internalNodes> 0 -1 58 -2.1424135193228722e-03</internalNodes><leafValues> -6.8426489830017090e-01 8.7048038840293884e-02</leafValues></_><_><internalNodes> 0 -1 105 6.0189396142959595e-02</internalNodes><leafValues> -1.1509643495082855e-01 6.0067284107208252e-01</leafValues></_><_><internalNodes> 0 -1 110 2.5765579193830490e-03</internalNodes><leafValues> -1.3639703392982483e-01 3.8964888453483582e-01</leafValues></_><_><internalNodes> 0 -1 417 3.0570095404982567e-03</internalNodes><leafValues> 7.8450374305248260e-02 -8.1011146306991577e-01</leafValues></_><_><internalNodes> 0 -1 232 -2.6517393998801708e-03</internalNodes><leafValues> 2.3903052508831024e-01 -2.4693201482295990e-01</leafValues></_><_><internalNodes> 0 -1 119 -2.6093246415257454e-03</internalNodes><leafValues> -6.4555734395980835e-01 8.5911057889461517e-02</leafValues></_><_><internalNodes> 0 -1 255 2.6235715486109257e-03</internalNodes><leafValues> -1.0038346052169800e-01 6.3847202062606812e-01</leafValues></_><_><internalNodes> 0 -1 154 -7.2667184285819530e-03</internalNodes><leafValues> -8.6109501123428345e-01 7.2537474334239960e-02</leafValues></_><_><internalNodes> 0 -1 265 -1.6650651814416051e-03</internalNodes><leafValues> 5.1281136274337769e-01 -1.2015233933925629e-01</leafValues></_></weakClassifiers></_><_><maxWeakCount>35</maxWeakCount><stageThreshold>-1.8614020347595215e+00</stageThreshold><weakClassifiers><_><internalNodes> 0 -1 305 -1.6018971800804138e-02</internalNodes><leafValues> -2.7859237045049667e-02 -5.8801954984664917e-01</leafValues></_><_><internalNodes> 0 -1 352 4.0460061281919479e-03</internalNodes><leafValues> -2.9268574714660645e-01 3.0030700564384460e-01</leafValues></_><_><internalNodes> 0 -1 36 -5.4685957729816437e-04</internalNodes><leafValues> 1.8536160886287689e-01 -4.1542893648147583e-01</leafValues></_><_><internalNodes> 0 -1 78 2.4461241066455841e-01</internalNodes><leafValues> -3.9882615208625793e-01 2.0537963509559631e-01</leafValues></_><_><internalNodes> 0 -1 434 -5.5255249142646790e-02</internalNodes><leafValues> 2.3483499884605408e-01 -3.0771669745445251e-01</leafValues></_><_><internalNodes> 0 -1 242 -1.7372336238622665e-02</internalNodes><leafValues> 4.6627449989318848e-01 -1.4556141197681427e-01</leafValues></_><_><internalNodes> 0 -1 227 7.2800205089151859e-03</internalNodes><leafValues> -1.7537528276443481e-01 4.0508422255516052e-01</leafValues></_><_><internalNodes> 0 -1 384 2.8115834575146437e-03</internalNodes><leafValues> -9.6227131783962250e-02 5.4497170448303223e-01</leafValues></_><_><internalNodes> 0 -1 52 -1.7978287360165268e-05</internalNodes><leafValues> 1.8980892002582550e-01 -3.4118863940238953e-01</leafValues></_><_><internalNodes> 0 -1 408 -3.9774151518940926e-03</internalNodes><leafValues> 2.3638674616813660e-01 -2.8411990404129028e-01</leafValues></_><_><internalNodes> 0 -1 100 4.4465935789048672e-03</internalNodes><leafValues> 6.9612711668014526e-02 -7.1722847223281860e-01</leafValues></_><_><internalNodes> 0 -1 235 1.8811067566275597e-03</internalNodes><leafValues> -1.9313967227935791e-01 3.0633828043937683e-01</leafValues></_><_><internalNodes> 0 -1 341 3.1739322002977133e-03</internalNodes><leafValues> -1.4488537609577179e-01 3.5856077075004578e-01</leafValues></_><_><internalNodes> 0 -1 332 -1.8349068341194652e-05</internalNodes><leafValues> 1.5239427983760834e-01 -3.6048918962478638e-01</leafValues></_><_><internalNodes> 0 -1 379 -3.8193480577319860e-03</internalNodes><leafValues> -8.0709892511367798e-01 7.3050051927566528e-02</leafValues></_><_><internalNodes> 0 -1 215 -1.5926947817206383e-03</internalNodes><leafValues> 4.1766625642776489e-01 -1.4839391410350800e-01</leafValues></_><_><internalNodes> 0 -1 340 4.1390291880816221e-04</internalNodes><leafValues> -1.7033582925796509e-01 3.3058899641036987e-01</leafValues></_><_><internalNodes> 0 -1 61 -6.3000631053000689e-04</internalNodes><leafValues> -5.2560293674468994e-01 1.2517490983009338e-01</leafValues></_><_><internalNodes> 0 -1 6 -2.5776270776987076e-03</internalNodes><leafValues> 2.8903859853744507e-01 -1.9218398630619049e-01</leafValues></_><_><internalNodes> 0 -1 241 -1.9587403221521527e-04</internalNodes><leafValues> -6.9095593690872192e-01 8.3538353443145752e-02</leafValues></_><_><internalNodes> 0 -1 425 2.8303233557380736e-04</internalNodes><leafValues> 1.0237674415111542e-01 -4.5532283186912537e-01</leafValues></_><_><internalNodes> 0 -1 383 2.1822607959620655e-04</internalNodes><leafValues> 1.4721411466598511e-01 -3.2546260952949524e-01</leafValues></_><_><internalNodes> 0 -1 142 7.4766743928194046e-03</internalNodes><leafValues> -1.3507448136806488e-01 4.1523575782775879e-01</leafValues></_><_><internalNodes> 0 -1 24 2.2097385954111814e-03</internalNodes><leafValues> -4.8628506064414978e-01 1.0399548709392548e-01</leafValues></_><_><internalNodes> 0 -1 330 3.0512437224388123e-03</internalNodes><leafValues> 8.5413753986358643e-02 -5.5678063631057739e-01</leafValues></_><_><internalNodes> 0 -1 258 -2.4067033082246780e-03</internalNodes><leafValues> 4.9389147758483887e-01 -1.1520446091890335e-01</leafValues></_><_><internalNodes> 0 -1 51 -1.0781349614262581e-02</internalNodes><leafValues> 3.6973115801811218e-01 -1.3371470570564270e-01</leafValues></_><_><internalNodes> 0 -1 121 -3.6473581567406654e-03</internalNodes><leafValues> 4.7657302021980286e-01 -1.1725145578384399e-01</leafValues></_><_><internalNodes> 0 -1 322 -7.8973884228616953e-04</internalNodes><leafValues> -6.8611943721771240e-01 8.6226955056190491e-02</leafValues></_><_><internalNodes> 0 -1 389 3.9469180628657341e-03</internalNodes><leafValues> 7.4111893773078918e-02 -6.2247890233993530e-01</leafValues></_><_><internalNodes> 0 -1 140 3.3431472256779671e-03</internalNodes><leafValues> -1.3528145849704742e-01 4.2351394891738892e-01</leafValues></_><_><internalNodes> 0 -1 376 -1.6088368138298392e-03</internalNodes><leafValues> 2.5308203697204590e-01 -1.9100193679332733e-01</leafValues></_><_><internalNodes> 0 -1 101 1.8508419394493103e-02</internalNodes><leafValues> -1.0492564737796783e-01 5.5777209997177124e-01</leafValues></_><_><internalNodes> 0 -1 217 2.2110952995717525e-03</internalNodes><leafValues> 8.9518852531909943e-02 -7.7212756872177124e-01</leafValues></_><_><internalNodes> 0 -1 430 -3.1986250542104244e-04</internalNodes><leafValues> 1.7344819009304047e-01 -2.8936421871185303e-01</leafValues></_></weakClassifiers></_><_><maxWeakCount>42</maxWeakCount><stageThreshold>-1.9498778581619263e+00</stageThreshold><weakClassifiers><_><internalNodes> 0 -1 348 8.9828651398420334e-03</internalNodes><leafValues> -4.6385052800178528e-01 2.6394051313400269e-01</leafValues></_><_><internalNodes> 0 -1 68 1.6094633610919118e-03</internalNodes><leafValues> -3.6208781599998474e-01 2.2221627831459045e-01</leafValues></_><_><internalNodes> 0 -1 365 -6.4340326935052872e-03</internalNodes><leafValues> 4.5478171110153198e-01 -1.6196197271347046e-01</leafValues></_><_><internalNodes> 0 -1 382 -8.2569904625415802e-03</internalNodes><leafValues> 3.5008054971694946e-01 -1.8865881860256195e-01</leafValues></_><_><internalNodes> 0 -1 15 -1.1220307787880301e-03</internalNodes><leafValues> 2.3046661913394928e-01 -2.7823534607887268e-01</leafValues></_><_><internalNodes> 0 -1 245 3.9246268570423126e-02</internalNodes><leafValues> -3.2244622707366943e-01 2.0054620504379272e-01</leafValues></_><_><internalNodes> 0 -1 302 1.5353383496403694e-03</internalNodes><leafValues> -3.8254687190055847e-01 1.6647322475910187e-01</leafValues></_><_><internalNodes> 0 -1 373 5.4078653920441866e-04</internalNodes><leafValues> -1.7224724590778351e-01 4.0554416179656982e-01</leafValues></_><_><internalNodes> 0 -1 153 1.2919371947646141e-02</internalNodes><leafValues> -9.3291714787483215e-02 4.7346585988998413e-01</leafValues></_><_><internalNodes> 0 -1 225 -1.6944043338298798e-02</internalNodes><leafValues> 4.0361231565475464e-01 -1.3879644870758057e-01</leafValues></_><_><internalNodes> 0 -1 219 2.3763598874211311e-03</internalNodes><leafValues> 9.8054856061935425e-02 -8.1940269470214844e-01</leafValues></_><_><internalNodes> 0 -1 136 1.8712744116783142e-02</internalNodes><leafValues> -1.5963870286941528e-01 4.5405423641204834e-01</leafValues></_><_><internalNodes> 0 -1 91 4.5780796790495515e-04</internalNodes><leafValues> 1.3375084102153778e-01 -5.2572488784790039e-01</leafValues></_><_><internalNodes> 0 -1 95 -2.0024203695356846e-03</internalNodes><leafValues> 1.9348452985286713e-01 -2.9514563083648682e-01</leafValues></_><_><internalNodes> 0 -1 192 -1.8777230288833380e-03</internalNodes><leafValues> 3.5508424043655396e-01 -1.4245203137397766e-01</leafValues></_><_><internalNodes> 0 -1 356 3.1322406139224768e-03</internalNodes><leafValues> 7.3314644396305084e-02 -6.8713468313217163e-01</leafValues></_><_><internalNodes> 0 -1 268 -4.3730167672038078e-03</internalNodes><leafValues> 8.6959719657897949e-02 -5.9121543169021606e-01</leafValues></_><_><internalNodes> 0 -1 418 -7.8166462481021881e-04</internalNodes><leafValues> 1.9426962733268738e-01 -2.7081626653671265e-01</leafValues></_><_><internalNodes> 0 -1 424 -2.5267049204558134e-04</internalNodes><leafValues> -4.7841829061508179e-01 9.5981620252132416e-02</leafValues></_><_><internalNodes> 0 -1 269 -7.9378392547369003e-04</internalNodes><leafValues> 4.1758465766906738e-01 -1.2520486116409302e-01</leafValues></_><_><internalNodes> 0 -1 172 -5.8927275240421295e-03</internalNodes><leafValues> 1.2937204539775848e-01 -3.9101111888885498e-01</leafValues></_><_><internalNodes> 0 -1 182 -3.5511360038071871e-03</internalNodes><leafValues> 5.2699923515319824e-01 -1.0266398638486862e-01</leafValues></_><_><internalNodes> 0 -1 108 -2.3859678767621517e-03</internalNodes><leafValues> -6.5594500303268433e-01 8.8742345571517944e-02</leafValues></_><_><internalNodes> 0 -1 233 -4.5168250799179077e-03</internalNodes><leafValues> 4.5296597480773926e-01 -1.3807101547718048e-01</leafValues></_><_><internalNodes> 0 -1 132 -3.6040667444467545e-02</internalNodes><leafValues> -8.3123481273651123e-01 7.1762725710868835e-02</leafValues></_><_><internalNodes> 0 -1 184 -3.1437298748642206e-03</internalNodes><leafValues> 3.5362744331359863e-01 -1.5470819175243378e-01</leafValues></_><_><internalNodes> 0 -1 55 9.2435628175735474e-04</internalNodes><leafValues> 7.5849018990993500e-02 -7.4848222732543945e-01</leafValues></_><_><internalNodes> 0 -1 53 -2.0426739007234573e-02</internalNodes><leafValues> 2.9751363396644592e-01 -1.7772296071052551e-01</leafValues></_><_><internalNodes> 0 -1 371 -4.2979619465768337e-03</internalNodes><leafValues> -7.0825225114822388e-01 6.8856649100780487e-02</leafValues></_><_><internalNodes> 0 -1 30 -3.6480552516877651e-03</internalNodes><leafValues> 2.8865370154380798e-01 -1.7522291839122772e-01</leafValues></_><_><internalNodes> 0 -1 130 -4.9658697098493576e-03</internalNodes><leafValues> -6.4339619874954224e-01 8.2007966935634613e-02</leafValues></_><_><internalNodes> 0 -1 342 -7.9404382267966866e-04</internalNodes><leafValues> 2.4496664106845856e-01 -2.0726707577705383e-01</leafValues></_><_><internalNodes> 0 -1 296 -4.9835378304123878e-03</internalNodes><leafValues> 4.7872018814086914e-01 -1.2949077785015106e-01</leafValues></_><_><internalNodes> 0 -1 390 1.9778423011302948e-03</internalNodes><leafValues> 7.3267459869384766e-02 -7.3783695697784424e-01</leafValues></_><_><internalNodes> 0 -1 290 -2.7192765846848488e-03</internalNodes><leafValues> 4.5029368996620178e-01 -1.2423991411924362e-01</leafValues></_><_><internalNodes> 0 -1 86 -1.6589034348726273e-03</internalNodes><leafValues> -4.3550118803977966e-01 1.4052316546440125e-01</leafValues></_><_><internalNodes> 0 -1 67 1.9000849127769470e-01</internalNodes><leafValues> -1.1792556196451187e-01 5.0903224945068359e-01</leafValues></_><_><internalNodes> 0 -1 92 -1.8698176427278668e-04</internalNodes><leafValues> 3.0729931592941284e-01 -1.5420828759670258e-01</leafValues></_><_><internalNodes> 0 -1 299 -4.8261594201903790e-05</internalNodes><leafValues> 2.6874405145645142e-01 -1.7834261059761047e-01</leafValues></_><_><internalNodes> 0 -1 272 -2.9041490051895380e-03</internalNodes><leafValues> 3.7195193767547607e-01 -1.2452069669961929e-01</leafValues></_><_><internalNodes> 0 -1 393 1.4330297708511353e-03</internalNodes><leafValues> 9.1127932071685791e-02 -5.7030963897705078e-01</leafValues></_><_><internalNodes> 0 -1 431 -2.1822834241902456e-05</internalNodes><leafValues> 2.0687276124954224e-01 -2.5092664361000061e-01</leafValues></_></weakClassifiers></_></stages><features><_><rects><_> 0 0 2 21 -1.</_><_> 1 0 1 21 2.</_></rects><tilted>0</tilted></_><_><rects><_> 0 0 4 27 -1.</_><_> 1 0 2 27 2.</_></rects><tilted>0</tilted></_><_><rects><_> 0 0 4 17 -1.</_><_> 2 0 2 17 2.</_></rects><tilted>0</tilted></_><_><rects><_> 0 0 9 21 -1.</_><_> 3 0 3 21 3.</_></rects><tilted>0</tilted></_><_><rects><_> 0 0 28 3 -1.</_><_> 7 0 14 3 2.</_></rects><tilted>0</tilted></_><_><rects><_> 0 0 30 29 -1.</_><_> 10 0 10 29 3.</_></rects><tilted>0</tilted></_><_><rects><_> 0 0 15 2 -1.</_><_> 0 1 15 1 2.</_></rects><tilted>0</tilted></_><_><rects><_> 0 2 2 17 -1.</_><_> 1 2 1 17 2.</_></rects><tilted>0</tilted></_><_><rects><_> 0 6 30 16 -1.</_><_> 0 10 30 8 2.</_></rects><tilted>0</tilted></_><_><rects><_> 0 8 3 18 -1.</_><_> 1 14 1 6 9.</_></rects><tilted>0</tilted></_><_><rects><_> 0 8 30 22 -1.</_><_> 0 19 30 11 2.</_></rects><tilted>0</tilted></_><_><rects><_> 0 9 11 4 -1.</_><_> 0 11 11 2 2.</_></rects><tilted>0</tilted></_><_><rects><_> 0 10 4 14 -1.</_><_> 2 10 2 14 2.</_></rects><tilted>0</tilted></_><_><rects><_> 0 10 29 20 -1.</_><_> 0 20 29 10 2.</_></rects><tilted>0</tilted></_><_><rects><_> 0 10 30 18 -1.</_><_> 0 19 30 9 2.</_></rects><tilted>0</tilted></_><_><rects><_> 0 11 2 9 -1.</_><_> 1 11 1 9 2.</_></rects><tilted>0</tilted></_><_><rects><_> 0 12 8 9 -1.</_><_> 2 12 4 9 2.</_></rects><tilted>0</tilted></_><_><rects><_> 0 13 2 10 -1.</_><_> 1 13 1 10 2.</_></rects><tilted>0</tilted></_><_><rects><_> 0 13 8 10 -1.</_><_> 2 13 4 10 2.</_></rects><tilted>0</tilted></_><_><rects><_> 0 13 9 7 -1.</_><_> 3 13 3 7 3.</_></rects><tilted>0</tilted></_><_><rects><_> 0 13 30 6 -1.</_><_> 0 16 30 3 2.</_></rects><tilted>0</tilted></_><_><rects><_> 0 14 8 3 -1.</_><_> 2 14 4 3 2.</_></rects><tilted>0</tilted></_><_><rects><_> 0 14 8 6 -1.</_><_> 2 14 4 6 2.</_></rects><tilted>0</tilted></_><_><rects><_> 0 14 30 16 -1.</_><_> 0 22 30 8 2.</_></rects><tilted>0</tilted></_><_><rects><_> 0 16 2 12 -1.</_><_> 0 22 2 6 2.</_></rects><tilted>0</tilted></_><_><rects><_> 0 20 30 10 -1.</_><_> 0 25 30 5 2.</_></rects><tilted>0</tilted></_><_><rects><_> 0 24 10 6 -1.</_><_> 0 24 5 3 2.</_><_> 5 27 5 3 2.</_></rects><tilted>0</tilted></_><_><rects><_> 0 25 11 4 -1.</_><_> 0 27 11 2 2.</_></rects><tilted>0</tilted></_><_><rects><_> 0 26 19 4 -1.</_><_> 0 28 19 2 2.</_></rects><tilted>0</tilted></_><_><rects><_> 1 0 28 25 -1.</_><_> 8 0 14 25 2.</_></rects><tilted>0</tilted></_><_><rects><_> 1 3 16 4 -1.</_><_> 1 3 8 2 2.</_><_> 9 5 8 2 2.</_></rects><tilted>0</tilted></_><_><rects><_> 1 5 25 15 -1.</_><_> 1 10 25 5 3.</_></rects><tilted>0</tilted></_><_><rects><_> 1 6 29 15 -1.</_><_> 1 11 29 5 3.</_></rects><tilted>0</tilted></_><_><rects><_> 1 7 2 21 -1.</_><_> 1 14 2 7 3.</_></rects><tilted>0</tilted></_><_><rects><_> 1 8 1 18 -1.</_><_> 1 14 1 6 3.</_></rects><tilted>0</tilted></_><_><rects><_> 1 8 8 12 -1.</_><_> 1 8 4 6 2.</_><_> 5 14 4 6 2.</_></rects><tilted>0</tilted></_><_><rects><_> 1 9 6 10 -1.</_><_> 3 9 2 10 3.</_></rects><tilted>0</tilted></_><_><rects><_> 1 9 29 20 -1.</_><_> 1 19 29 10 2.</_></rects><tilted>0</tilted></_><_><rects><_> 1 10 28 3 -1.</_><_> 8 10 14 3 2.</_></rects><tilted>0</tilted></_><_><rects><_> 1 11 11 4 -1.</_><_> 1 12 11 2 2.</_></rects><tilted>0</tilted></_><_><rects><_> 1 12 8 7 -1.</_><_> 3 12 4 7 2.</_></rects><tilted>0</tilted></_><_><rects><_> 1 13 6 5 -1.</_><_> 3 13 2 5 3.</_></rects><tilted>0</tilted></_><_><rects><_> 1 15 4 6 -1.</_><_> 2 15 2 6 2.</_></rects><tilted>0</tilted></_><_><rects><_> 1 25 4 1 -1.</_><_> 2 26 2 1 2.</_></rects><tilted>1</tilted></_><_><rects><_> 2 1 6 22 -1.</_><_> 4 1 2 22 3.</_></rects><tilted>0</tilted></_><_><rects><_> 2 2 23 6 -1.</_><_> 2 4 23 2 3.</_></rects><tilted>0</tilted></_><_><rects><_> 2 8 28 16 -1.</_><_> 9 8 14 16 2.</_></rects><tilted>0</tilted></_><_><rects><_> 2 15 8 10 -1.</_><_> 2 15 4 5 2.</_><_> 6 20 4 5 2.</_></rects><tilted>0</tilted></_><_><rects><_> 2 20 10 10 -1.</_><_> 7 20 5 10 2.</_></rects><tilted>0</tilted></_><_><rects><_> 2 20 28 10 -1.</_><_> 2 25 28 5 2.</_></rects><tilted>0</tilted></_><_><rects><_> 2 22 22 8 -1.</_><_> 2 26 22 4 2.</_></rects><tilted>0</tilted></_><_><rects><_> 2 25 28 4 -1.</_><_> 9 25 14 4 2.</_></rects><tilted>0</tilted></_><_><rects><_> 2 26 2 1 -1.</_><_> 2 26 1 1 2.</_></rects><tilted>1</tilted></_><_><rects><_> 3 0 27 3 -1.</_><_> 12 1 9 1 9.</_></rects><tilted>0</tilted></_><_><rects><_> 3 1 25 9 -1.</_><_> 3 4 25 3 3.</_></rects><tilted>0</tilted></_><_><rects><_> 3 4 1 3 -1.</_><_> 2 5 1 1 3.</_></rects><tilted>1</tilted></_><_><rects><_> 3 4 6 3 -1.</_><_> 2 5 6 1 3.</_></rects><tilted>1</tilted></_><_><rects><_> 3 4 20 2 -1.</_><_> 3 5 20 1 2.</_></rects><tilted>0</tilted></_><_><rects><_> 3 5 4 3 -1.</_><_> 2 6 4 1 3.</_></rects><tilted>1</tilted></_><_><rects><_> 3 5 6 3 -1.</_><_> 2 6 6 1 3.</_></rects><tilted>1</tilted></_><_><rects><_> 3 7 2 3 -1.</_><_> 2 8 2 1 3.</_></rects><tilted>1</tilted></_><_><rects><_> 3 9 1 3 -1.</_><_> 2 10 1 1 3.</_></rects><tilted>1</tilted></_><_><rects><_> 3 9 3 3 -1.</_><_> 2 10 3 1 3.</_></rects><tilted>1</tilted></_><_><rects><_> 3 9 22 6 -1.</_><_> 3 11 22 2 3.</_></rects><tilted>0</tilted></_><_><rects><_> 3 10 1 2 -1.</_><_> 3 10 1 1 2.</_></rects><tilted>1</tilted></_><_><rects><_> 3 10 3 2 -1.</_><_> 3 10 3 1 2.</_></rects><tilted>1</tilted></_><_><rects><_> 3 11 3 2 -1.</_><_> 3 11 3 1 2.</_></rects><tilted>1</tilted></_><_><rects><_> 3 11 26 19 -1.</_><_> 16 11 13 19 2.</_></rects><tilted>0</tilted></_><_><rects><_> 3 14 8 2 -1.</_><_> 3 15 8 1 2.</_></rects><tilted>0</tilted></_><_><rects><_> 3 15 4 10 -1.</_><_> 3 15 2 5 2.</_><_> 5 20 2 5 2.</_></rects><tilted>0</tilted></_><_><rects><_> 3 15 9 2 -1.</_><_> 6 15 3 2 3.</_></rects><tilted>0</tilted></_><_><rects><_> 3 15 6 10 -1.</_><_> 3 15 3 5 2.</_><_> 6 20 3 5 2.</_></rects><tilted>0</tilted></_><_><rects><_> 3 22 3 2 -1.</_><_> 4 23 1 2 3.</_></rects><tilted>1</tilted></_><_><rects><_> 3 22 4 3 -1.</_><_> 4 23 2 3 2.</_></rects><tilted>1</tilted></_><_><rects><_> 3 25 4 1 -1.</_><_> 4 26 2 1 2.</_></rects><tilted>1</tilted></_><_><rects><_> 4 0 21 27 -1.</_><_> 11 9 7 9 9.</_></rects><tilted>0</tilted></_><_><rects><_> 4 0 15 6 -1.</_><_> 4 3 15 3 2.</_></rects><tilted>0</tilted></_><_><rects><_> 4 0 22 2 -1.</_><_> 4 1 22 1 2.</_></rects><tilted>0</tilted></_><_><rects><_> 4 0 26 30 -1.</_><_> 4 15 26 15 2.</_></rects><tilted>0</tilted></_><_><rects><_> 4 2 19 8 -1.</_><_> 4 6 19 4 2.</_></rects><tilted>0</tilted></_><_><rects><_> 4 3 4 7 -1.</_><_> 5 3 2 7 2.</_></rects><tilted>0</tilted></_><_><rects><_> 4 3 21 21 -1.</_><_> 11 10 7 7 9.</_></rects><tilted>0</tilted></_><_><rects><_> 4 3 9 6 -1.</_><_> 4 5 9 2 3.</_></rects><tilted>0</tilted></_><_><rects><_> 4 5 4 4 -1.</_><_> 3 6 4 2 2.</_></rects><tilted>1</tilted></_><_><rects><_> 4 6 2 4 -1.</_><_> 3 7 2 2 2.</_></rects><tilted>1</tilted></_><_><rects><_> 4 6 5 4 -1.</_><_> 3 7 5 2 2.</_></rects><tilted>1</tilted></_><_><rects><_> 4 7 5 3 -1.</_><_> 3 8 5 1 3.</_></rects><tilted>1</tilted></_><_><rects><_> 4 7 18 22 -1.</_><_> 4 18 18 11 2.</_></rects><tilted>0</tilted></_><_><rects><_> 4 8 3 4 -1.</_><_> 3 9 3 2 2.</_></rects><tilted>1</tilted></_><_><rects><_> 4 8 19 6 -1.</_><_> 4 10 19 2 3.</_></rects><tilted>0</tilted></_><_><rects><_> 4 9 3 4 -1.</_><_> 4 9 3 2 2.</_></rects><tilted>1</tilted></_><_><rects><_> 4 10 1 3 -1.</_><_> 3 11 1 1 3.</_></rects><tilted>1</tilted></_><_><rects><_> 4 10 2 4 -1.</_><_> 4 10 1 2 2.</_><_> 5 12 1 2 2.</_></rects><tilted>0</tilted></_><_><rects><_> 4 10 2 4 -1.</_><_> 3 11 2 2 2.</_></rects><tilted>1</tilted></_><_><rects><_> 4 13 4 2 -1.</_><_> 4 13 2 1 2.</_><_> 6 14 2 1 2.</_></rects><tilted>0</tilted></_><_><rects><_> 4 13 12 4 -1.</_><_> 3 14 12 2 2.</_></rects><tilted>1</tilted></_><_><rects><_> 4 14 6 2 -1.</_><_> 6 14 2 2 3.</_></rects><tilted>0</tilted></_><_><rects><_> 4 14 9 3 -1.</_><_> 7 14 3 3 3.</_></rects><tilted>0</tilted></_><_><rects><_> 4 15 4 6 -1.</_><_> 4 15 2 3 2.</_><_> 6 18 2 3 2.</_></rects><tilted>0</tilted></_><_><rects><_> 4 15 15 2 -1.</_><_> 9 15 5 2 3.</_></rects><tilted>0</tilted></_><_><rects><_> 4 20 6 10 -1.</_><_> 6 20 2 10 3.</_></rects><tilted>0</tilted></_><_><rects><_> 4 20 20 2 -1.</_><_> 14 20 10 2 2.</_></rects><tilted>0</tilted></_><_><rects><_> 4 24 3 2 -1.</_><_> 5 25 1 2 3.</_></rects><tilted>1</tilted></_><_><rects><_> 4 24 3 3 -1.</_><_> 5 25 1 3 3.</_></rects><tilted>1</tilted></_><_><rects><_> 4 25 2 3 -1.</_><_> 4 25 1 3 2.</_></rects><tilted>1</tilted></_><_><rects><_> 5 0 22 10 -1.</_><_> 5 0 11 5 2.</_><_> 16 5 11 5 2.</_></rects><tilted>0</tilted></_><_><rects><_> 5 0 12 6 -1.</_><_> 5 2 12 2 3.</_></rects><tilted>0</tilted></_><_><rects><_> 5 0 24 8 -1.</_><_> 5 0 12 4 2.</_><_> 17 4 12 4 2.</_></rects><tilted>0</tilted></_><_><rects><_> 5 1 4 12 -1.</_><_> 6 1 2 12 2.</_></rects><tilted>0</tilted></_><_><rects><_> 5 1 6 8 -1.</_><_> 7 1 2 8 3.</_></rects><tilted>0</tilted></_><_><rects><_> 5 6 3 5 -1.</_><_> 6 7 1 5 3.</_></rects><tilted>1</tilted></_><_><rects><_> 5 6 17 4 -1.</_><_> 5 7 17 2 2.</_></rects><tilted>0</tilted></_><_><rects><_> 5 6 19 12 -1.</_><_> 5 10 19 4 3.</_></rects><tilted>0</tilted></_><_><rects><_> 5 6 20 12 -1.</_><_> 5 10 20 4 3.</_></rects><tilted>0</tilted></_><_><rects><_> 5 7 2 3 -1.</_><_> 4 8 2 1 3.</_></rects><tilted>1</tilted></_><_><rects><_> 5 7 3 4 -1.</_><_> 4 8 3 2 2.</_></rects><tilted>1</tilted></_><_><rects><_> 5 8 17 8 -1.</_><_> 5 10 17 4 2.</_></rects><tilted>0</tilted></_><_><rects><_> 5 8 22 9 -1.</_><_> 5 11 22 3 3.</_></rects><tilted>0</tilted></_><_><rects><_> 5 9 2 4 -1.</_><_> 4 10 2 2 2.</_></rects><tilted>1</tilted></_><_><rects><_> 5 10 2 4 -1.</_><_> 4 11 2 2 2.</_></rects><tilted>1</tilted></_><_><rects><_> 5 11 2 5 -1.</_><_> 5 11 1 5 2.</_></rects><tilted>1</tilted></_><_><rects><_> 5 13 6 4 -1.</_><_> 7 13 2 4 3.</_></rects><tilted>0</tilted></_><_><rects><_> 5 14 2 12 -1.</_><_> 5 14 1 6 2.</_><_> 6 20 1 6 2.</_></rects><tilted>0</tilted></_><_><rects><_> 5 14 6 2 -1.</_><_> 7 14 2 2 3.</_></rects><tilted>0</tilted></_><_><rects><_> 5 24 3 2 -1.</_><_> 6 25 1 2 3.</_></rects><tilted>1</tilted></_><_><rects><_> 5 25 4 4 -1.</_><_> 6 25 2 4 2.</_></rects><tilted>0</tilted></_><_><rects><_> 5 26 2 2 -1.</_><_> 5 26 1 2 2.</_></rects><tilted>1</tilted></_><_><rects><_> 5 26 4 4 -1.</_><_> 6 26 2 4 2.</_></rects><tilted>0</tilted></_><_><rects><_> 6 0 18 27 -1.</_><_> 12 9 6 9 9.</_></rects><tilted>0</tilted></_><_><rects><_> 6 1 4 9 -1.</_><_> 7 1 2 9 2.</_></rects><tilted>0</tilted></_><_><rects><_> 6 2 6 9 -1.</_><_> 8 2 2 9 3.</_></rects><tilted>0</tilted></_><_><rects><_> 6 2 7 28 -1.</_><_> 6 16 7 14 2.</_></rects><tilted>0</tilted></_><_><rects><_> 6 6 15 6 -1.</_><_> 11 6 5 6 3.</_></rects><tilted>0</tilted></_><_><rects><_> 6 6 16 6 -1.</_><_> 6 8 16 2 3.</_></rects><tilted>0</tilted></_><_><rects><_> 6 7 6 4 -1.</_><_> 8 7 2 4 3.</_></rects><tilted>0</tilted></_><_><rects><_> 6 8 18 8 -1.</_><_> 6 10 18 4 2.</_></rects><tilted>0</tilted></_><_><rects><_> 6 10 18 4 -1.</_><_> 6 12 18 2 2.</_></rects><tilted>0</tilted></_><_><rects><_> 6 11 3 4 -1.</_><_> 7 12 1 4 3.</_></rects><tilted>1</tilted></_><_><rects><_> 6 11 4 6 -1.</_><_> 6 14 4 3 2.</_></rects><tilted>0</tilted></_><_><rects><_> 6 11 18 6 -1.</_><_> 6 14 18 3 2.</_></rects><tilted>0</tilted></_><_><rects><_> 6 12 4 5 -1.</_><_> 7 12 2 5 2.</_></rects><tilted>0</tilted></_><_><rects><_> 6 14 6 2 -1.</_><_> 8 14 2 2 3.</_></rects><tilted>0</tilted></_><_><rects><_> 6 14 6 3 -1.</_><_> 8 14 2 3 3.</_></rects><tilted>0</tilted></_><_><rects><_> 6 14 7 6 -1.</_><_> 4 16 7 2 3.</_></rects><tilted>1</tilted></_><_><rects><_> 6 14 9 6 -1.</_><_> 4 16 9 2 3.</_></rects><tilted>1</tilted></_><_><rects><_> 6 14 15 14 -1.</_><_> 6 21 15 7 2.</_></rects><tilted>0</tilted></_><_><rects><_> 6 16 2 3 -1.</_><_> 7 16 1 3 2.</_></rects><tilted>0</tilted></_><_><rects><_> 6 18 6 5 -1.</_><_> 8 20 2 5 3.</_></rects><tilted>1</tilted></_><_><rects><_> 6 22 3 5 -1.</_><_> 7 23 1 5 3.</_></rects><tilted>1</tilted></_><_><rects><_> 6 23 4 4 -1.</_><_> 7 23 2 4 2.</_></rects><tilted>0</tilted></_><_><rects><_> 6 23 3 4 -1.</_><_> 7 24 1 4 3.</_></rects><tilted>1</tilted></_><_><rects><_> 6 26 3 1 -1.</_><_> 7 27 1 1 3.</_></rects><tilted>1</tilted></_><_><rects><_> 7 0 6 1 -1.</_><_> 9 2 2 1 3.</_></rects><tilted>1</tilted></_><_><rects><_> 7 1 6 6 -1.</_><_> 7 4 6 3 2.</_></rects><tilted>0</tilted></_><_><rects><_> 7 6 9 3 -1.</_><_> 10 6 3 3 3.</_></rects><tilted>0</tilted></_><_><rects><_> 7 6 6 12 -1.</_><_> 7 10 6 4 3.</_></rects><tilted>0</tilted></_><_><rects><_> 7 7 6 20 -1.</_><_> 7 17 6 10 2.</_></rects><tilted>0</tilted></_><_><rects><_> 7 7 14 9 -1.</_><_> 7 10 14 3 3.</_></rects><tilted>0</tilted></_><_><rects><_> 7 11 6 6 -1.</_><_> 9 13 2 6 3.</_></rects><tilted>1</tilted></_><_><rects><_> 7 13 15 4 -1.</_><_> 12 13 5 4 3.</_></rects><tilted>0</tilted></_><_><rects><_> 7 13 15 5 -1.</_><_> 12 13 5 5 3.</_></rects><tilted>0</tilted></_><_><rects><_> 7 14 16 4 -1.</_><_> 11 14 8 4 2.</_></rects><tilted>0</tilted></_><_><rects><_> 7 14 15 4 -1.</_><_> 12 14 5 4 3.</_></rects><tilted>0</tilted></_><_><rects><_> 7 15 2 3 -1.</_><_> 8 15 1 3 2.</_></rects><tilted>0</tilted></_><_><rects><_> 7 23 3 3 -1.</_><_> 8 24 1 3 3.</_></rects><tilted>1</tilted></_><_><rects><_> 7 25 2 2 -1.</_><_> 7 25 1 2 2.</_></rects><tilted>1</tilted></_><_><rects><_> 7 26 3 1 -1.</_><_> 8 27 1 1 3.</_></rects><tilted>1</tilted></_><_><rects><_> 7 26 4 4 -1.</_><_> 7 28 4 2 2.</_></rects><tilted>0</tilted></_><_><rects><_> 8 0 8 6 -1.</_><_> 8 3 8 3 2.</_></rects><tilted>0</tilted></_><_><rects><_> 8 0 20 8 -1.</_><_> 6 2 20 4 2.</_></rects><tilted>1</tilted></_><_><rects><_> 8 1 14 9 -1.</_><_> 8 4 14 3 3.</_></rects><tilted>0</tilted></_><_><rects><_> 8 3 13 6 -1.</_><_> 8 5 13 2 3.</_></rects><tilted>0</tilted></_><_><rects><_> 8 6 12 12 -1.</_><_> 11 6 6 12 2.</_></rects><tilted>0</tilted></_><_><rects><_> 8 6 4 4 -1.</_><_> 8 7 4 2 2.</_></rects><tilted>0</tilted></_><_><rects><_> 8 6 9 3 -1.</_><_> 8 7 9 1 3.</_></rects><tilted>0</tilted></_><_><rects><_> 8 9 8 3 -1.</_><_> 7 10 8 1 3.</_></rects><tilted>1</tilted></_><_><rects><_> 8 9 13 4 -1.</_><_> 8 10 13 2 2.</_></rects><tilted>0</tilted></_><_><rects><_> 8 10 12 3 -1.</_><_> 8 11 12 1 3.</_></rects><tilted>0</tilted></_><_><rects><_> 8 11 4 7 -1.</_><_> 9 11 2 7 2.</_></rects><tilted>0</tilted></_><_><rects><_> 8 13 2 4 -1.</_><_> 9 13 1 4 2.</_></rects><tilted>0</tilted></_><_><rects><_> 8 13 12 6 -1.</_><_> 11 13 6 6 2.</_></rects><tilted>0</tilted></_><_><rects><_> 8 13 12 16 -1.</_><_> 12 13 4 16 3.</_></rects><tilted>0</tilted></_><_><rects><_> 8 13 5 3 -1.</_><_> 7 14 5 1 3.</_></rects><tilted>1</tilted></_><_><rects><_> 8 14 12 3 -1.</_><_> 12 14 4 3 3.</_></rects><tilted>0</tilted></_><_><rects><_> 8 14 7 4 -1.</_><_> 7 15 7 2 2.</_></rects><tilted>1</tilted></_><_><rects><_> 8 17 3 4 -1.</_><_> 8 18 3 2 2.</_></rects><tilted>0</tilted></_><_><rects><_> 8 22 3 5 -1.</_><_> 9 23 1 5 3.</_></rects><tilted>1</tilted></_><_><rects><_> 8 24 3 6 -1.</_><_> 8 27 3 3 2.</_></rects><tilted>0</tilted></_><_><rects><_> 8 27 8 3 -1.</_><_> 10 27 4 3 2.</_></rects><tilted>0</tilted></_><_><rects><_> 9 1 6 9 -1.</_><_> 11 1 2 9 3.</_></rects><tilted>0</tilted></_><_><rects><_> 9 2 4 5 -1.</_><_> 10 2 2 5 2.</_></rects><tilted>0</tilted></_><_><rects><_> 9 3 9 8 -1.</_><_> 12 3 3 8 3.</_></rects><tilted>0</tilted></_><_><rects><_> 9 5 11 4 -1.</_><_> 9 6 11 2 2.</_></rects><tilted>0</tilted></_><_><rects><_> 9 6 5 4 -1.</_><_> 9 7 5 2 2.</_></rects><tilted>0</tilted></_><_><rects><_> 9 8 9 4 -1.</_><_> 9 9 9 2 2.</_></rects><tilted>0</tilted></_><_><rects><_> 9 9 13 3 -1.</_><_> 9 10 13 1 3.</_></rects><tilted>0</tilted></_><_><rects><_> 9 12 6 3 -1.</_><_> 8 13 6 1 3.</_></rects><tilted>1</tilted></_><_><rects><_> 9 14 12 5 -1.</_><_> 12 14 6 5 2.</_></rects><tilted>0</tilted></_><_><rects><_> 9 14 12 4 -1.</_><_> 13 14 4 4 3.</_></rects><tilted>0</tilted></_><_><rects><_> 9 21 3 5 -1.</_><_> 10 22 1 5 3.</_></rects><tilted>1</tilted></_><_><rects><_> 10 6 3 9 -1.</_><_> 11 7 1 9 3.</_></rects><tilted>1</tilted></_><_><rects><_> 10 6 8 22 -1.</_><_> 10 17 8 11 2.</_></rects><tilted>0</tilted></_><_><rects><_> 10 9 9 4 -1.</_><_> 10 10 9 2 2.</_></rects><tilted>0</tilted></_><_><rects><_> 10 10 3 2 -1.</_><_> 11 11 1 2 3.</_></rects><tilted>1</tilted></_><_><rects><_> 10 10 12 3 -1.</_><_> 10 11 12 1 3.</_></rects><tilted>0</tilted></_><_><rects><_> 10 11 5 3 -1.</_><_> 9 12 5 1 3.</_></rects><tilted>1</tilted></_><_><rects><_> 10 11 8 4 -1.</_><_> 10 11 8 2 2.</_></rects><tilted>1</tilted></_><_><rects><_> 10 13 5 3 -1.</_><_> 9 14 5 1 3.</_></rects><tilted>1</tilted></_><_><rects><_> 10 13 6 3 -1.</_><_> 9 14 6 1 3.</_></rects><tilted>1</tilted></_><_><rects><_> 10 14 3 3 -1.</_><_> 9 15 3 1 3.</_></rects><tilted>1</tilted></_><_><rects><_> 10 14 15 4 -1.</_><_> 15 14 5 4 3.</_></rects><tilted>0</tilted></_><_><rects><_> 10 15 9 4 -1.</_><_> 13 15 3 4 3.</_></rects><tilted>0</tilted></_><_><rects><_> 10 15 9 8 -1.</_><_> 13 15 3 8 3.</_></rects><tilted>0</tilted></_><_><rects><_> 10 15 9 12 -1.</_><_> 13 15 3 12 3.</_></rects><tilted>0</tilted></_><_><rects><_> 10 17 8 3 -1.</_><_> 10 18 8 1 3.</_></rects><tilted>0</tilted></_><_><rects><_> 10 18 6 3 -1.</_><_> 10 19 6 1 3.</_></rects><tilted>0</tilted></_><_><rects><_> 10 18 8 4 -1.</_><_> 10 19 8 2 2.</_></rects><tilted>0</tilted></_><_><rects><_> 10 21 4 4 -1.</_><_> 11 22 2 4 2.</_></rects><tilted>1</tilted></_><_><rects><_> 10 21 8 4 -1.</_><_> 12 21 4 4 2.</_></rects><tilted>0</tilted></_><_><rects><_> 10 23 6 4 -1.</_><_> 12 23 2 4 3.</_></rects><tilted>0</tilted></_><_><rects><_> 10 24 2 4 -1.</_><_> 10 24 1 4 2.</_></rects><tilted>1</tilted></_><_><rects><_> 10 24 6 6 -1.</_><_> 12 24 2 6 3.</_></rects><tilted>0</tilted></_><_><rects><_> 10 25 6 3 -1.</_><_> 12 25 2 3 3.</_></rects><tilted>0</tilted></_><_><rects><_> 10 26 4 3 -1.</_><_> 11 26 2 3 2.</_></rects><tilted>0</tilted></_><_><rects><_> 10 26 6 4 -1.</_><_> 12 26 2 4 3.</_></rects><tilted>0</tilted></_><_><rects><_> 11 0 7 9 -1.</_><_> 11 3 7 3 3.</_></rects><tilted>0</tilted></_><_><rects><_> 11 0 9 9 -1.</_><_> 11 3 9 3 3.</_></rects><tilted>0</tilted></_><_><rects><_> 11 0 12 6 -1.</_><_> 11 2 12 2 3.</_></rects><tilted>0</tilted></_><_><rects><_> 11 0 19 27 -1.</_><_> 11 9 19 9 3.</_></rects><tilted>0</tilted></_><_><rects><_> 11 1 11 6 -1.</_><_> 11 4 11 3 2.</_></rects><tilted>0</tilted></_><_><rects><_> 11 5 6 4 -1.</_><_> 11 6 6 2 2.</_></rects><tilted>0</tilted></_><_><rects><_> 11 11 6 3 -1.</_><_> 11 12 6 1 3.</_></rects><tilted>0</tilted></_><_><rects><_> 11 12 6 3 -1.</_><_> 13 13 2 1 9.</_></rects><tilted>0</tilted></_><_><rects><_> 11 13 4 3 -1.</_><_> 10 14 4 1 3.</_></rects><tilted>1</tilted></_><_><rects><_> 11 14 3 3 -1.</_><_> 10 15 3 1 3.</_></rects><tilted>1</tilted></_><_><rects><_> 11 18 7 3 -1.</_><_> 11 19 7 1 3.</_></rects><tilted>0</tilted></_><_><rects><_> 11 22 1 4 -1.</_><_> 11 22 1 2 2.</_></rects><tilted>1</tilted></_><_><rects><_> 11 24 3 3 -1.</_><_> 12 25 1 3 3.</_></rects><tilted>1</tilted></_><_><rects><_> 11 24 2 4 -1.</_><_> 11 24 1 4 2.</_></rects><tilted>1</tilted></_><_><rects><_> 11 24 6 3 -1.</_><_> 13 24 2 3 3.</_></rects><tilted>0</tilted></_><_><rects><_> 11 25 6 4 -1.</_><_> 13 25 2 4 3.</_></rects><tilted>0</tilted></_><_><rects><_> 11 26 3 1 -1.</_><_> 12 26 1 1 3.</_></rects><tilted>0</tilted></_><_><rects><_> 12 0 15 8 -1.</_><_> 12 2 15 4 2.</_></rects><tilted>0</tilted></_><_><rects><_> 12 1 8 6 -1.</_><_> 12 3 8 2 3.</_></rects><tilted>0</tilted></_><_><rects><_> 12 4 8 3 -1.</_><_> 14 4 4 3 2.</_></rects><tilted>0</tilted></_><_><rects><_> 12 8 2 22 -1.</_><_> 12 19 2 11 2.</_></rects><tilted>0</tilted></_><_><rects><_> 12 9 6 20 -1.</_><_> 12 14 6 10 2.</_></rects><tilted>0</tilted></_><_><rects><_> 12 9 7 3 -1.</_><_> 12 10 7 1 3.</_></rects><tilted>0</tilted></_><_><rects><_> 12 9 9 4 -1.</_><_> 12 10 9 2 2.</_></rects><tilted>0</tilted></_><_><rects><_> 12 10 5 3 -1.</_><_> 12 11 5 1 3.</_></rects><tilted>0</tilted></_><_><rects><_> 12 10 6 20 -1.</_><_> 12 20 6 10 2.</_></rects><tilted>0</tilted></_><_><rects><_> 12 10 18 2 -1.</_><_> 12 10 9 2 2.</_></rects><tilted>1</tilted></_><_><rects><_> 12 12 6 3 -1.</_><_> 14 13 2 1 9.</_></rects><tilted>0</tilted></_><_><rects><_> 12 22 3 5 -1.</_><_> 13 23 1 5 3.</_></rects><tilted>1</tilted></_><_><rects><_> 12 24 3 3 -1.</_><_> 13 24 1 3 3.</_></rects><tilted>0</tilted></_><_><rects><_> 13 7 3 10 -1.</_><_> 14 7 1 10 3.</_></rects><tilted>0</tilted></_><_><rects><_> 13 7 11 22 -1.</_><_> 13 18 11 11 2.</_></rects><tilted>0</tilted></_><_><rects><_> 13 9 4 20 -1.</_><_> 13 19 4 10 2.</_></rects><tilted>0</tilted></_><_><rects><_> 13 10 3 5 -1.</_><_> 14 10 1 5 3.</_></rects><tilted>0</tilted></_><_><rects><_> 13 10 4 20 -1.</_><_> 13 20 4 10 2.</_></rects><tilted>0</tilted></_><_><rects><_> 13 10 10 8 -1.</_><_> 13 10 5 4 2.</_><_> 18 14 5 4 2.</_></rects><tilted>0</tilted></_><_><rects><_> 13 10 9 3 -1.</_><_> 13 11 9 1 3.</_></rects><tilted>0</tilted></_><_><rects><_> 13 11 3 6 -1.</_><_> 14 13 1 2 9.</_></rects><tilted>0</tilted></_><_><rects><_> 13 11 3 4 -1.</_><_> 14 11 1 4 3.</_></rects><tilted>0</tilted></_><_><rects><_> 13 11 3 5 -1.</_><_> 14 11 1 5 3.</_></rects><tilted>0</tilted></_><_><rects><_> 13 12 2 3 -1.</_><_> 14 12 1 3 2.</_></rects><tilted>0</tilted></_><_><rects><_> 13 12 3 3 -1.</_><_> 14 12 1 3 3.</_></rects><tilted>0</tilted></_><_><rects><_> 13 12 12 6 -1.</_><_> 16 12 6 6 2.</_></rects><tilted>0</tilted></_><_><rects><_> 14 5 2 16 -1.</_><_> 14 9 2 8 2.</_></rects><tilted>0</tilted></_><_><rects><_> 14 7 2 3 -1.</_><_> 14 8 2 1 3.</_></rects><tilted>0</tilted></_><_><rects><_> 14 8 1 16 -1.</_><_> 14 16 1 8 2.</_></rects><tilted>0</tilted></_><_><rects><_> 14 11 3 3 -1.</_><_> 15 12 1 1 9.</_></rects><tilted>0</tilted></_><_><rects><_> 14 12 4 6 -1.</_><_> 15 12 2 6 2.</_></rects><tilted>0</tilted></_><_><rects><_> 14 23 6 3 -1.</_><_> 16 23 2 3 3.</_></rects><tilted>0</tilted></_><_><rects><_> 14 24 2 4 -1.</_><_> 14 24 1 4 2.</_></rects><tilted>1</tilted></_><_><rects><_> 14 27 8 2 -1.</_><_> 16 27 4 2 2.</_></rects><tilted>0</tilted></_><_><rects><_> 15 0 8 11 -1.</_><_> 17 0 4 11 2.</_></rects><tilted>0</tilted></_><_><rects><_> 15 8 3 16 -1.</_><_> 15 16 3 8 2.</_></rects><tilted>0</tilted></_><_><rects><_> 15 10 6 12 -1.</_><_> 17 12 2 12 3.</_></rects><tilted>1</tilted></_><_><rects><_> 15 11 3 14 -1.</_><_> 16 11 1 14 3.</_></rects><tilted>0</tilted></_><_><rects><_> 15 12 6 4 -1.</_><_> 17 12 2 4 3.</_></rects><tilted>0</tilted></_><_><rects><_> 15 14 6 3 -1.</_><_> 17 14 2 3 3.</_></rects><tilted>0</tilted></_><_><rects><_> 15 15 8 6 -1.</_><_> 15 15 4 3 2.</_><_> 19 18 4 3 2.</_></rects><tilted>0</tilted></_><_><rects><_> 15 25 6 4 -1.</_><_> 17 25 2 4 3.</_></rects><tilted>0</tilted></_><_><rects><_> 15 25 6 5 -1.</_><_> 17 25 2 5 3.</_></rects><tilted>0</tilted></_><_><rects><_> 15 26 4 4 -1.</_><_> 16 26 2 4 2.</_></rects><tilted>0</tilted></_><_><rects><_> 16 0 6 7 -1.</_><_> 18 0 2 7 3.</_></rects><tilted>0</tilted></_><_><rects><_> 16 0 6 9 -1.</_><_> 18 0 2 9 3.</_></rects><tilted>0</tilted></_><_><rects><_> 16 0 8 12 -1.</_><_> 18 0 4 12 2.</_></rects><tilted>0</tilted></_><_><rects><_> 16 6 7 3 -1.</_><_> 16 7 7 1 3.</_></rects><tilted>0</tilted></_><_><rects><_> 16 12 4 4 -1.</_><_> 17 12 2 4 2.</_></rects><tilted>0</tilted></_><_><rects><_> 16 12 6 5 -1.</_><_> 18 12 2 5 3.</_></rects><tilted>0</tilted></_><_><rects><_> 16 14 6 3 -1.</_><_> 18 14 2 3 3.</_></rects><tilted>0</tilted></_><_><rects><_> 17 7 9 8 -1.</_><_> 20 10 3 8 3.</_></rects><tilted>1</tilted></_><_><rects><_> 17 9 6 8 -1.</_><_> 15 11 6 4 2.</_></rects><tilted>1</tilted></_><_><rects><_> 17 12 4 4 -1.</_><_> 18 12 2 4 2.</_></rects><tilted>0</tilted></_><_><rects><_> 17 13 6 5 -1.</_><_> 19 13 2 5 3.</_></rects><tilted>0</tilted></_><_><rects><_> 17 14 3 1 -1.</_><_> 18 15 1 1 3.</_></rects><tilted>1</tilted></_><_><rects><_> 17 14 8 3 -1.</_><_> 19 14 4 3 2.</_></rects><tilted>0</tilted></_><_><rects><_> 17 20 2 1 -1.</_><_> 18 20 1 1 2.</_></rects><tilted>0</tilted></_><_><rects><_> 17 22 3 4 -1.</_><_> 17 22 3 2 2.</_></rects><tilted>1</tilted></_><_><rects><_> 17 23 6 7 -1.</_><_> 19 23 2 7 3.</_></rects><tilted>0</tilted></_><_><rects><_> 17 24 4 6 -1.</_><_> 17 27 4 3 2.</_></rects><tilted>0</tilted></_><_><rects><_> 17 27 4 3 -1.</_><_> 18 27 2 3 2.</_></rects><tilted>0</tilted></_><_><rects><_> 18 0 4 5 -1.</_><_> 19 0 2 5 2.</_></rects><tilted>0</tilted></_><_><rects><_> 18 5 1 12 -1.</_><_> 14 9 1 4 3.</_></rects><tilted>1</tilted></_><_><rects><_> 18 5 6 7 -1.</_><_> 20 5 2 7 3.</_></rects><tilted>0</tilted></_><_><rects><_> 18 14 4 2 -1.</_><_> 19 14 2 2 2.</_></rects><tilted>0</tilted></_><_><rects><_> 18 15 6 3 -1.</_><_> 20 16 2 1 9.</_></rects><tilted>0</tilted></_><_><rects><_> 19 1 6 6 -1.</_><_> 21 1 2 6 3.</_></rects><tilted>0</tilted></_><_><rects><_> 19 10 3 6 -1.</_><_> 20 11 1 6 3.</_></rects><tilted>1</tilted></_><_><rects><_> 19 10 6 6 -1.</_><_> 19 10 3 6 2.</_></rects><tilted>1</tilted></_><_><rects><_> 19 11 4 4 -1.</_><_> 20 12 2 4 2.</_></rects><tilted>1</tilted></_><_><rects><_> 19 12 2 5 -1.</_><_> 20 12 1 5 2.</_></rects><tilted>0</tilted></_><_><rects><_> 19 13 4 3 -1.</_><_> 20 13 2 3 2.</_></rects><tilted>0</tilted></_><_><rects><_> 19 13 3 3 -1.</_><_> 20 14 1 3 3.</_></rects><tilted>1</tilted></_><_><rects><_> 19 13 2 4 -1.</_><_> 20 13 1 4 2.</_></rects><tilted>0</tilted></_><_><rects><_> 19 13 2 6 -1.</_><_> 19 13 1 6 2.</_></rects><tilted>1</tilted></_><_><rects><_> 19 13 6 4 -1.</_><_> 21 13 2 4 3.</_></rects><tilted>0</tilted></_><_><rects><_> 19 13 8 4 -1.</_><_> 21 13 4 4 2.</_></rects><tilted>0</tilted></_><_><rects><_> 19 15 10 10 -1.</_><_> 19 15 5 5 2.</_><_> 24 20 5 5 2.</_></rects><tilted>0</tilted></_><_><rects><_> 19 25 2 1 -1.</_><_> 20 25 1 1 2.</_></rects><tilted>0</tilted></_><_><rects><_> 19 28 6 2 -1.</_><_> 21 28 2 2 3.</_></rects><tilted>0</tilted></_><_><rects><_> 20 2 6 8 -1.</_><_> 22 2 2 8 3.</_></rects><tilted>0</tilted></_><_><rects><_> 20 6 6 6 -1.</_><_> 22 6 2 6 3.</_></rects><tilted>0</tilted></_><_><rects><_> 20 11 4 8 -1.</_><_> 20 11 2 8 2.</_></rects><tilted>1</tilted></_><_><rects><_> 20 13 1 2 -1.</_><_> 20 14 1 1 2.</_></rects><tilted>0</tilted></_><_><rects><_> 20 13 2 5 -1.</_><_> 21 13 1 5 2.</_></rects><tilted>0</tilted></_><_><rects><_> 20 14 3 2 -1.</_><_> 21 15 1 2 3.</_></rects><tilted>1</tilted></_><_><rects><_> 20 15 2 2 -1.</_><_> 21 15 1 2 2.</_></rects><tilted>0</tilted></_><_><rects><_> 20 17 9 4 -1.</_><_> 19 18 9 2 2.</_></rects><tilted>1</tilted></_><_><rects><_> 20 22 1 8 -1.</_><_> 20 26 1 4 2.</_></rects><tilted>0</tilted></_><_><rects><_> 20 27 1 2 -1.</_><_> 20 27 1 1 2.</_></rects><tilted>1</tilted></_><_><rects><_> 20 28 8 2 -1.</_><_> 20 28 4 1 2.</_><_> 24 29 4 1 2.</_></rects><tilted>0</tilted></_><_><rects><_> 21 0 6 9 -1.</_><_> 23 0 2 9 3.</_></rects><tilted>0</tilted></_><_><rects><_> 21 1 9 13 -1.</_><_> 24 4 3 13 3.</_></rects><tilted>1</tilted></_><_><rects><_> 21 5 9 14 -1.</_><_> 24 5 3 14 3.</_></rects><tilted>0</tilted></_><_><rects><_> 21 5 8 8 -1.</_><_> 25 5 4 8 2.</_></rects><tilted>0</tilted></_><_><rects><_> 21 9 2 18 -1.</_><_> 21 9 2 9 2.</_></rects><tilted>1</tilted></_><_><rects><_> 21 11 4 7 -1.</_><_> 22 11 2 7 2.</_></rects><tilted>0</tilted></_><_><rects><_> 21 11 4 2 -1.</_><_> 21 11 2 1 2.</_><_> 23 12 2 1 2.</_></rects><tilted>0</tilted></_><_><rects><_> 21 11 5 3 -1.</_><_> 20 12 5 1 3.</_></rects><tilted>1</tilted></_><_><rects><_> 21 12 2 7 -1.</_><_> 22 12 1 7 2.</_></rects><tilted>0</tilted></_><_><rects><_> 21 12 2 9 -1.</_><_> 22 12 1 9 2.</_></rects><tilted>0</tilted></_><_><rects><_> 21 12 2 4 -1.</_><_> 21 14 2 2 2.</_></rects><tilted>0</tilted></_><_><rects><_> 21 12 6 5 -1.</_><_> 23 12 2 5 3.</_></rects><tilted>0</tilted></_><_><rects><_> 21 13 2 4 -1.</_><_> 22 13 1 4 2.</_></rects><tilted>0</tilted></_><_><rects><_> 21 13 3 4 -1.</_><_> 22 14 1 4 3.</_></rects><tilted>1</tilted></_><_><rects><_> 21 13 3 6 -1.</_><_> 22 14 1 6 3.</_></rects><tilted>1</tilted></_><_><rects><_> 21 13 8 7 -1.</_><_> 23 13 4 7 2.</_></rects><tilted>0</tilted></_><_><rects><_> 21 14 2 2 -1.</_><_> 22 14 1 2 2.</_></rects><tilted>0</tilted></_><_><rects><_> 21 14 2 4 -1.</_><_> 21 14 1 4 2.</_></rects><tilted>1</tilted></_><_><rects><_> 21 14 4 10 -1.</_><_> 21 14 2 5 2.</_><_> 23 19 2 5 2.</_></rects><tilted>0</tilted></_><_><rects><_> 21 14 9 5 -1.</_><_> 24 14 3 5 3.</_></rects><tilted>0</tilted></_><_><rects><_> 21 15 2 1 -1.</_><_> 21 15 1 1 2.</_></rects><tilted>1</tilted></_><_><rects><_> 21 15 8 3 -1.</_><_> 23 15 4 3 2.</_></rects><tilted>0</tilted></_><_><rects><_> 21 17 9 3 -1.</_><_> 20 18 9 1 3.</_></rects><tilted>1</tilted></_><_><rects><_> 21 21 7 2 -1.</_><_> 21 21 7 1 2.</_></rects><tilted>1</tilted></_><_><rects><_> 21 24 1 4 -1.</_><_> 21 24 1 2 2.</_></rects><tilted>1</tilted></_><_><rects><_> 21 27 1 2 -1.</_><_> 21 28 1 1 2.</_></rects><tilted>0</tilted></_><_><rects><_> 21 27 4 3 -1.</_><_> 22 27 2 3 2.</_></rects><tilted>0</tilted></_><_><rects><_> 22 0 8 24 -1.</_><_> 24 0 4 24 2.</_></rects><tilted>0</tilted></_><_><rects><_> 22 9 8 15 -1.</_><_> 24 9 4 15 2.</_></rects><tilted>0</tilted></_><_><rects><_> 22 10 5 3 -1.</_><_> 21 11 5 1 3.</_></rects><tilted>1</tilted></_><_><rects><_> 22 13 2 14 -1.</_><_> 22 13 1 7 2.</_><_> 23 20 1 7 2.</_></rects><tilted>0</tilted></_><_><rects><_> 22 14 2 5 -1.</_><_> 22 14 1 5 2.</_></rects><tilted>1</tilted></_><_><rects><_> 22 14 8 5 -1.</_><_> 24 14 4 5 2.</_></rects><tilted>0</tilted></_><_><rects><_> 22 14 8 8 -1.</_><_> 24 14 4 8 2.</_></rects><tilted>0</tilted></_><_><rects><_> 22 15 2 2 -1.</_><_> 23 15 1 2 2.</_></rects><tilted>0</tilted></_><_><rects><_> 22 15 4 10 -1.</_><_> 22 15 2 5 2.</_><_> 24 20 2 5 2.</_></rects><tilted>0</tilted></_><_><rects><_> 22 17 6 4 -1.</_><_> 22 17 3 2 2.</_><_> 25 19 3 2 2.</_></rects><tilted>0</tilted></_><_><rects><_> 22 17 7 4 -1.</_><_> 21 18 7 2 2.</_></rects><tilted>1</tilted></_><_><rects><_> 23 12 2 4 -1.</_><_> 23 12 1 2 2.</_><_> 24 14 1 2 2.</_></rects><tilted>0</tilted></_><_><rects><_> 23 13 4 2 -1.</_><_> 23 13 2 1 2.</_><_> 25 14 2 1 2.</_></rects><tilted>0</tilted></_><_><rects><_> 23 15 6 5 -1.</_><_> 25 15 2 5 3.</_></rects><tilted>0</tilted></_><_><rects><_> 23 16 4 8 -1.</_><_> 23 16 2 4 2.</_><_> 25 20 2 4 2.</_></rects><tilted>0</tilted></_><_><rects><_> 23 16 6 4 -1.</_><_> 25 18 2 4 3.</_></rects><tilted>1</tilted></_><_><rects><_> 23 17 3 3 -1.</_><_> 22 18 3 1 3.</_></rects><tilted>1</tilted></_><_><rects><_> 23 21 4 7 -1.</_><_> 25 21 2 7 2.</_></rects><tilted>0</tilted></_><_><rects><_> 24 0 4 15 -1.</_><_> 25 0 2 15 2.</_></rects><tilted>0</tilted></_><_><rects><_> 24 0 6 4 -1.</_><_> 24 0 6 2 2.</_></rects><tilted>1</tilted></_><_><rects><_> 24 9 5 3 -1.</_><_> 23 10 5 1 3.</_></rects><tilted>1</tilted></_><_><rects><_> 24 9 6 4 -1.</_><_> 23 10 6 2 2.</_></rects><tilted>1</tilted></_><_><rects><_> 24 11 4 1 -1.</_><_> 25 12 2 1 2.</_></rects><tilted>1</tilted></_><_><rects><_> 24 11 5 3 -1.</_><_> 23 12 5 1 3.</_></rects><tilted>1</tilted></_><_><rects><_> 24 12 6 8 -1.</_><_> 26 12 2 8 3.</_></rects><tilted>0</tilted></_><_><rects><_> 24 12 6 4 -1.</_><_> 23 13 6 2 2.</_></rects><tilted>1</tilted></_><_><rects><_> 25 0 4 7 -1.</_><_> 26 0 2 7 2.</_></rects><tilted>0</tilted></_><_><rects><_> 25 1 3 27 -1.</_><_> 26 10 1 9 9.</_></rects><tilted>0</tilted></_><_><rects><_> 25 2 4 7 -1.</_><_> 26 3 2 7 2.</_></rects><tilted>1</tilted></_><_><rects><_> 25 5 3 10 -1.</_><_> 26 5 1 10 3.</_></rects><tilted>0</tilted></_><_><rects><_> 25 8 4 3 -1.</_><_> 26 9 2 3 2.</_></rects><tilted>1</tilted></_><_><rects><_> 25 9 5 6 -1.</_><_> 23 11 5 2 3.</_></rects><tilted>1</tilted></_><_><rects><_> 25 10 4 2 -1.</_><_> 26 11 2 2 2.</_></rects><tilted>1</tilted></_><_><rects><_> 25 19 5 6 -1.</_><_> 23 21 5 2 3.</_></rects><tilted>1</tilted></_><_><rects><_> 25 21 4 4 -1.</_><_> 24 22 4 2 2.</_></rects><tilted>1</tilted></_><_><rects><_> 25 22 3 4 -1.</_><_> 24 23 3 2 2.</_></rects><tilted>1</tilted></_><_><rects><_> 25 22 4 4 -1.</_><_> 24 23 4 2 2.</_></rects><tilted>1</tilted></_><_><rects><_> 26 0 4 19 -1.</_><_> 28 0 2 19 2.</_></rects><tilted>0</tilted></_><_><rects><_> 26 3 2 24 -1.</_><_> 20 9 2 12 2.</_></rects><tilted>1</tilted></_><_><rects><_> 26 6 4 4 -1.</_><_> 27 7 2 4 2.</_></rects><tilted>1</tilted></_><_><rects><_> 26 7 3 3 -1.</_><_> 27 8 1 3 3.</_></rects><tilted>1</tilted></_><_><rects><_> 26 7 4 3 -1.</_><_> 27 8 2 3 2.</_></rects><tilted>1</tilted></_><_><rects><_> 26 8 4 3 -1.</_><_> 27 9 2 3 2.</_></rects><tilted>1</tilted></_><_><rects><_> 26 9 3 3 -1.</_><_> 27 10 1 3 3.</_></rects><tilted>1</tilted></_><_><rects><_> 26 9 3 4 -1.</_><_> 27 10 1 4 3.</_></rects><tilted>1</tilted></_><_><rects><_> 26 10 4 2 -1.</_><_> 27 11 2 2 2.</_></rects><tilted>1</tilted></_><_><rects><_> 26 13 4 13 -1.</_><_> 27 14 2 13 2.</_></rects><tilted>1</tilted></_><_><rects><_> 26 13 4 16 -1.</_><_> 26 13 2 8 2.</_><_> 28 21 2 8 2.</_></rects><tilted>0</tilted></_><_><rects><_> 26 15 1 14 -1.</_><_> 26 22 1 7 2.</_></rects><tilted>0</tilted></_><_><rects><_> 26 15 2 12 -1.</_><_> 26 21 2 6 2.</_></rects><tilted>0</tilted></_><_><rects><_> 26 15 3 10 -1.</_><_> 26 20 3 5 2.</_></rects><tilted>0</tilted></_><_><rects><_> 26 25 3 2 -1.</_><_> 26 25 3 1 2.</_></rects><tilted>1</tilted></_><_><rects><_> 26 27 1 2 -1.</_><_> 26 27 1 1 2.</_></rects><tilted>1</tilted></_><_><rects><_> 26 27 4 3 -1.</_><_> 26 28 4 1 3.</_></rects><tilted>0</tilted></_><_><rects><_> 27 7 3 4 -1.</_><_> 28 8 1 4 